{"learner":{"attributes":{"best_iteration":"74","best_score":"0.8104827586206896"},"feature_names":["mrna_length","fA","fU","fG","fC","au_content","gc_content","di_AA","di_AU","di_AG","di_AC","di_UA","di_UU","di_UG","di_UC","di_GA","di_GU","di_GG","di_GC","di_CA","di_CU","di_CG","di_CC","utr5_length","utr3_length","cds_length","utr5_fraction","utr3_fraction","cds_fraction","utr3_au_content","rrach_count","rrach_per_kb","aaach_count","aaach_per_kb","mfe","mfe_per_nt","frac_paired","n_stemloops","n_stemloops_per_kb","long_3utr","ptc_proxy","rmsf_mean","rmsf_std","rmsf_max","rmsf_nterm50","rmsf_cterm50","rg_mean","rg_std","rg_cv","contact_density","packing_density","sasa_per_residue","pass_rate","n_residues","idr_percent","mean_disorder","max_disorder_window","n_idr_regions","longest_idr_region","has_bioemu"],"feature_types":[],"gradient_booster":{"model":{"cats":{"enc":[],"feature_segments":[],"sorted_idx":[]},"gbtree_model_param":{"num_parallel_tree":"1","num_trees":"105"},"iteration_indptr":[0,1,2,3,4,5,6,7,8,9,10,11,12,13,14,15,16,17,18,19,20,21,22,23,24,25,26,27,28,29,30,31,32,33,34,35,36,37,38,39,40,41,42,43,44,45,46,47,48,49,50,51,52,53,54,55,56,57,58,59,60,61,62,63,64,65,66,67,68,69,70,71,72,73,74,75,76,77,78,79,80,81,82,83,84,85,86,87,88,89,90,91,92,93,94,95,96,97,98,99,100,101,102,103,104,105],"tree_info":[0,0,0,0,0,0,0,0,0,0,0,0,0,0,0,0,0,0,0,0,0,0,0,0,0,0,0,0,0,0,0,0,0,0,0,0,0,0,0,0,0,0,0,0,0,0,0,0,0,0,0,0,0,0,0,0,0,0,0,0,0,0,0,0,0,0,0,0,0,0,0,0,0,0,0,0,0,0,0,0,0,0,0,0,0,0,0,0,0,0,0,0,0,0,0,0,0,0,0,0,0,0,0,0,0],"trees":[{"base_weights":[1.166635E-3,-1.0042844E0,5.685396E-1,5.9288952E-2,-1.267094E0,5.119059E-2,1.0720196E0,4.066317E-2,-3.968963E-2,-1.5526189E0,-2.3329487E-1,3.1359345E-1,-6.6051203E-1,1.3855479E0,4.0896925E-1,-4.7789346E-2,-8.550886E-2,2.0440487E-2,-3.968963E-2,-1.3508454E-1,8.2281005E-1,4.252136E-3,-5.2847266E-2,1.5778599E0,1.9742722E-2,8.195559E-1,-1.5908225E-2,-5.0296974E-1,2.5813485E-2,3.6850443E-1,6.61687E-2,4.1978072E-2,8.7376915E-2,5.812752E-2,1.5837012E-2,-5.6508012E-2,1.6341273E-3,5.2452475E-2,-1.8614281E-2],"categories":[],"categories_nodes":[],"categories_segments":[],"categories_sizes":[],"default_left":[1,0,0,0,1,0,0,0,0,0,0,0,0,0,0,0,0,0,0,0,0,0,0,0,0,0,0,0,0,0,0,0,0,0,0,0,0,0,0],"id":0,"left_children":[1,3,5,7,9,11,13,-1,-1,15,17,19,21,23,25,-1,-1,-1,-1,27,29,-1,-1,31,-1,33,-1,35,-1,37,-1,-1,-1,-1,-1,-1,-1,-1,-1],"loss_changes":[9.981126E1,1.7717216E1,2.9078545E1,9.303805E0,1.4589935E1,1.0705258E1,1.1206566E1,0E0,0E0,2.081314E0,4.693489E0,9.64978E0,4.660693E0,6.623024E0,6.1125903E0,0E0,0E0,0E0,0E0,5.783682E0,3.9914656E0,0E0,0E0,2.480957E0,0E0,1.8404703E0,0E0,5.156461E0,0E0,6.2946453E0,0E0,0E0,0E0,0E0,0E0,0E0,0E0,0E0,0E0],"parents":[2147483647,0,0,1,1,2,2,3,3,4,4,5,5,6,6,9,9,10,10,11,11,12,12,13,13,14,14,19,19,20,20,23,23,25,25,27,27,29,29],"right_children":[2,4,6,8,10,12,14,-1,-1,16,18,20,22,24,26,-1,-1,-1,-1,28,30,-1,-1,32,-1,34,-1,36,-1,38,-1,-1,-1,-1,-1,-1,-1,-1,-1],"split_conditions":[1.95E2,6.4983E0,1.59E3,2.80857E1,3.76572E1,2.02126E1,3.3798676E-2,4.066317E-2,-3.968963E-2,6.6E-1,8.0472104E-2,1.3215859E1,2.9748283E-2,3.0792227E-1,6.314E-1,-4.7789346E-2,-8.550886E-2,2.0440487E-2,-3.968963E-2,3.2377E0,9.4229E0,4.252136E-3,-5.2847266E-2,1.79356E1,1.9742722E-2,5.664839E-1,-1.5908225E-2,6.358059E-2,2.5813485E-2,2.00561E1,6.61687E-2,4.1978072E-2,8.7376915E-2,5.812752E-2,1.5837012E-2,-5.6508012E-2,1.6341273E-3,5.2452475E-2,-1.8614281E-2],"split_indices":[53,41,0,50,43,45,21,0,0,52,8,31,21,2,36,0,0,0,0,47,41,0,0,51,0,5,0,9,0,51,0,0,0,0,0,0,0,0,0],"split_type":[0,0,0,0,0,0,0,0,0,0,0,0,0,0,0,0,0,0,0,0,0,0,0,0,0,0,0,0,0,0,0,0,0,0,0,0,0,0,0],"sum_hessian":[1.7296361E2,6.2116272E1,1.10847336E2,1.2461161E1,4.965511E1,5.5214027E1,5.563331E1,6.6395974E0,5.8215637E0,3.8515625E1,1.1139484E1,4.074926E1,1.44647665E1,3.7032536E1,1.860077E1,9.520009E0,2.8995617E1,5.3179207E0,5.8215637E0,2.2052877E1,1.8696383E1,5.294018E0,9.170749E0,3.0516108E1,6.5164285E0,1.180679E1,6.7939806E0,1.4238675E1,7.8142023E0,1.07112055E1,7.9851766E0,6.8142276E0,2.3701881E1,6.2388763E0,5.5679145E0,6.0476546E0,8.191021E0,5.365726E0,5.345479E0],"tree_param":{"num_deleted":"0","num_feature":"60","num_nodes":"39","size_leaf_vector":"1"}},{"base_weights":[5.0244506E-2,-8.111027E-1,7.0083976E-1,7.110942E-2,-1.1405911E0,3.251267E-1,1.2009572E0,7.4932146E-1,-3.5081662E-2,-8.358848E-2,-5.7371914E-1,5.751287E-1,-8.2155603E-1,1.4487854E0,3.7137195E-1,7.63304E-3,6.616588E-2,-1.3550672E-1,-9.8225844E-1,-1.646106E-2,8.065983E-1,-6.54787E-2,-9.824435E-3,2.1559358E-2,1.6367208E0,4.090121E-2,-6.387282E-3,-3.3108428E-2,3.1676166E-2,-7.2154604E-2,-2.0109413E-2,3.6902022E-1,1.1419178E0,4.944132E-2,8.916724E-2,-4.651863E-3,6.095151E-2,1.9392787E-2,6.9811985E-2],"categories":[],"categories_nodes":[],"categories_segments":[],"categories_sizes":[],"default_left":[1,0,0,0,1,0,0,0,0,0,0,0,0,0,0,0,0,0,0,0,0,0,0,0,0,0,0,0,0,0,0,0,0,0,0,0,0,0,0],"id":1,"left_children":[1,3,5,7,9,11,13,15,-1,-1,17,19,21,23,25,-1,-1,27,29,-1,31,-1,-1,-1,33,-1,-1,-1,-1,-1,-1,35,37,-1,-1,-1,-1,-1,-1],"loss_changes":[9.9942314E1,2.239637E1,1.8692879E1,1.1959497E1,1.5888855E1,1.7490713E1,8.342876E0,3.942884E0,0E0,0E0,4.985195E0,1.0591085E1,3.1097102E0,5.5891113E0,2.6193397E0,0E0,0E0,6.4760904E0,3.3319502E0,0E0,5.383808E0,0E0,0E0,0E0,8.420181E-1,0E0,0E0,0E0,0E0,0E0,0E0,7.435237E0,3.662529E0,0E0,0E0,0E0,0E0,0E0,0E0],"parents":[2147483647,0,0,1,1,2,2,3,3,4,4,5,5,6,6,7,7,10,10,11,11,12,12,13,13,14,14,17,17,18,18,20,20,24,24,31,31,32,32],"right_children":[2,4,6,8,10,12,14,16,-1,-1,18,20,22,24,26,-1,-1,28,30,-1,32,-1,-1,-1,34,-1,-1,-1,-1,-1,-1,36,38,-1,-1,-1,-1,-1,-1],"split_conditions":[2.26E2,1.041E-1,1.778E3,5.875576E-2,4.2997E0,7.134E-1,3.041599E-1,1.697531E1,-3.5081662E-2,-8.358848E-2,1.7201836E1,8.2542E-2,1.2635379E1,5.509259E-1,3.436426E-2,7.63304E-3,6.616588E-2,5.4E1,5.8794465E-2,-1.646106E-2,1.047E-1,-6.54787E-2,-9.824435E-3,2.1559358E-2,6.5155804E-2,4.090121E-2,-6.387282E-3,-3.3108428E-2,3.1676166E-2,-7.2154604E-2,-2.0109413E-2,7.810578E-2,3.3E-1,4.944132E-2,8.916724E-2,-4.651863E-3,6.095151E-2,1.9392787E-2,6.9811985E-2],"split_indices":[53,48,0,11,42,29,2,38,0,0,38,12,31,5,22,0,0,58,20,0,48,0,0,0,13,0,0,0,0,0,0,13,52,0,0,0,0,0,0],"split_type":[0,0,0,0,0,0,0,0,0,0,0,0,0,0,0,0,0,0,0,0,0,0,0,0,0,0,0,0,0,0,0,0,0,0,0,0,0,0,0],"sum_hessian":[1.7633034E2,7.576953E1,1.005608E2,2.0816662E1,5.495287E1,5.836455E1,4.219625E1,1.1102583E1,9.71408E0,2.7363352E1,2.7589518E1,4.832671E1,1.003784E1,3.1915499E1,1.0280751E1,6.0645413E0,5.0380416E0,1.3953853E1,1.3635666E1,9.762481E0,3.856423E1,5.021916E0,5.0159245E0,5.489E0,2.64265E1,5.088338E0,5.192413E0,8.364483E0,5.5893693E0,6.7697153E0,6.865951E0,1.7642284E1,2.0921946E1,6.3059716E0,2.0120527E1,1.2006311E1,5.635973E0,5.9135056E0,1.5008441E1],"tree_param":{"num_deleted":"0","num_feature":"60","num_nodes":"39","size_leaf_vector":"1"}},{"base_weights":[-4.4284933E-3,-8.37511E-1,4.854465E-1,3.2562785E-2,-9.918592E-1,8.5008067E-1,-5.7703845E-2,-6.405837E-1,-7.67944E-2,3.9436355E-1,1.1902796E0,-5.2400816E-2,1.2476201E-1,-1.206967E-1,-1.1735704E0,6.529384E-2,1.504971E-1,1.38753E0,2.4812689E-2,-7.98588E-2,5.9195317E-2,-5.39016E-2,2.9276484E-1,-7.2663635E-2,-2.8670624E-2,3.927382E-1,-2.8384272E-2,3.0258019E-2,7.8161016E-2,-4.236758E-2,2.0932284E-1,-1.663684E-2,3.359723E-2,5.5829305E-2,-2.1268828E-3,2.898677E-2,-2.5480587E-2],"categories":[],"categories_nodes":[],"categories_segments":[],"categories_sizes":[],"default_left":[1,0,0,0,0,0,0,0,0,0,0,0,0,0,0,0,0,0,0,0,0,0,0,0,0,0,0,0,0,0,0,0,0,0,0,0,0],"id":2,"left_children":[1,3,5,-1,7,9,11,13,-1,15,17,-1,19,21,23,-1,25,27,-1,29,-1,-1,31,-1,-1,33,-1,-1,-1,-1,35,-1,-1,-1,-1,-1,-1],"loss_changes":[7.221161E1,1.5701214E1,2.2117695E1,0E0,1.0436455E1,9.876713E0,8.387694E0,1.0395732E1,0E0,6.476491E0,4.4744377E0,0E0,8.650529E0,8.376657E0,2.2995415E0,0E0,4.539882E0,3.0142212E0,0E0,7.7287173E0,0E0,0E0,3.7834182E0,0E0,0E0,6.0799656E0,0E0,0E0,0E0,0E0,7.089923E0,0E0,0E0,0E0,0E0,0E0,0E0],"parents":[2147483647,0,0,1,1,2,2,4,4,5,5,6,6,7,7,9,9,10,10,12,12,13,13,14,14,16,16,17,17,19,19,22,22,25,25,30,30],"right_children":[2,4,6,-1,8,10,12,14,-1,16,18,-1,20,22,24,-1,26,28,-1,30,-1,-1,32,-1,-1,34,-1,-1,-1,-1,36,-1,-1,-1,-1,-1,-1],"split_conditions":[2.05E2,2.22961E1,3.4076016E-2,3.2562785E-2,2.8424E1,1.577E3,6.187E-1,8.056872E-2,-7.67944E-2,6.417E-1,5.7841383E-2,-5.2400816E-2,1.00161E1,6.203E-1,6.007E0,6.529384E-2,9.66E2,3.521127E-2,2.4812689E-2,4.1699716E-1,5.9195317E-2,-5.39016E-2,1.8371758E-1,-7.2663635E-2,-2.8670624E-2,4.7505937E0,-2.8384272E-2,3.0258019E-2,7.8161016E-2,-4.236758E-2,7.7820164E-1,-1.663684E-2,3.359723E-2,5.5829305E-2,-2.1268828E-3,2.898677E-2,-2.5480587E-2],"split_indices":[53,51,21,0,50,0,29,8,0,29,11,0,42,29,47,0,25,18,0,6,0,0,4,0,0,33,0,0,0,0,28,0,0,0,0,0,0],"split_type":[0,0,0,0,0,0,0,0,0,0,0,0,0,0,0,0,0,0,0,0,0,0,0,0,0,0,0,0,0,0,0,0,0,0,0,0,0],"sum_hessian":[1.749469E2,6.451792E1,1.1042897E2,5.758158E0,5.8759766E1,6.573432E1,4.4694645E1,3.7028324E1,2.1731443E1,2.901978E1,3.6714546E1,6.2157493E0,3.8478897E1,1.9365368E1,1.7662956E1,5.2060294E0,2.3813751E1,2.7811062E1,8.903483E0,3.3023533E1,5.455363E0,5.356201E0,1.4009167E1,1.1078405E1,6.5845513E0,1.8146227E1,5.6675243E0,5.9150615E0,2.1896E1,8.509366E0,2.4514168E1,5.3334675E0,8.675699E0,6.2265167E0,1.1919709E1,1.6306356E1,8.207811E0],"tree_param":{"num_deleted":"0","num_feature":"60","num_nodes":"37","size_leaf_vector":"1"}},{"base_weights":[-7.3227145E-2,-9.089487E-1,4.434337E-1,1.4306256E-1,-1.1663862E0,8.2506496E-1,-1.8632533E-1,3.5631217E-2,-3.300522E-2,-1.4879483E0,-6.502986E-1,1.1716993E0,4.040011E-1,3.0046532E-2,-5.8140416E-2,-2.965713E-2,-8.20862E-2,4.2081065E-3,-9.3371385E-1,1.384848E0,6.0582752E-3,7.0911896E-1,-2.1691302E-2,6.135636E-1,-5.357103E-1,-1.2872341E-2,-6.290941E-2,2.6457896E-2,1.5637918E0,1.0254446E0,4.3491437E-3,5.2859716E-2,7.4772954E-2,-9.532341E-1,1.6046626E-2,4.265763E-2,8.5423835E-2,6.820801E-2,2.4328804E-2,-3.2193627E-2,4.0792573E-2,-7.385848E-2,-1.3727638E-2],"categories":[],"categories_nodes":[],"categories_segments":[],"categories_sizes":[],"default_left":[1,0,0,0,1,1,0,0,0,0,0,0,0,0,0,0,0,0,0,0,0,0,0,0,0,0,0,0,0,0,0,0,0,0,0,0,0,0,0,0,0,0,0],"id":3,"left_children":[1,3,5,7,9,11,13,-1,-1,15,17,19,21,23,-1,-1,-1,-1,25,27,-1,29,-1,31,33,-1,-1,-1,35,37,-1,39,-1,41,-1,-1,-1,-1,-1,-1,-1,-1,-1],"loss_changes":[7.5148056E1,1.8166405E1,2.6024872E1,6.8550973E0,7.9116516E0,9.336536E0,8.789284E0,0E0,0E0,3.45533E0,4.7237997E0,7.9689445E0,8.455768E0,1.1847943E1,0E0,0E0,0E0,0E0,3.2275743E0,3.7833786E0,0E0,4.5836725E0,0E0,8.64516E0,6.8334084E0,0E0,0E0,0E0,1.0504761E0,2.1924133E0,0E0,6.810053E0,0E0,4.0469694E0,0E0,0E0,0E0,0E0,0E0,0E0,0E0,0E0,0E0],"parents":[2147483647,0,0,1,1,2,2,3,3,4,4,5,5,6,6,9,9,10,10,11,11,12,12,13,13,18,18,19,19,21,21,23,23,24,24,28,28,29,29,31,31,33,33],"right_children":[2,4,6,8,10,12,14,-1,-1,16,18,20,22,24,-1,-1,-1,-1,26,28,-1,30,-1,32,34,-1,-1,-1,36,38,-1,40,-1,42,-1,-1,-1,-1,-1,-1,-1,-1,-1],"split_conditions":[2.05E2,6.0518E0,3.4351144E-2,2.514E-1,4.414E0,-4.19E2,8.719852E-2,3.5631217E-2,-3.300522E-2,6.9977E0,1.5165876E1,3.0701753E-1,3.26E2,1.735896E1,-5.8140416E-2,-2.965713E-2,-8.20862E-2,4.2081065E-3,7.6612905E-2,7.571E-1,6.0582752E-3,-2.943E2,-2.1691302E-2,8.2417E0,7.009346E-2,-1.2872341E-2,-6.290941E-2,2.6457896E-2,5.755396E-2,2.371E-1,4.3491437E-3,3.51E2,7.4772954E-2,2.35E2,1.6046626E-2,4.265763E-2,8.5423835E-2,6.820801E-2,2.4328804E-2,-3.2193627E-2,4.0792573E-2,-7.385848E-2,-1.3727638E-2],"split_indices":[53,44,21,55,42,34,15,0,0,45,38,2,53,38,0,0,0,0,8,47,0,34,0,42,13,0,0,0,19,55,0,53,0,24,0,0,0,0,0,0,0,0,0],"split_type":[0,0,0,0,0,0,0,0,0,0,0,0,0,0,0,0,0,0,0,0,0,0,0,0,0,0,0,0,0,0,0,0,0,0,0,0,0,0,0,0,0,0,0],"sum_hessian":[1.7210716E2,6.546133E1,1.0664583E2,1.2957038E1,5.2504284E1,6.62117E1,4.043413E1,7.6469646E0,5.310074E0,3.1188398E1,2.1315887E1,3.5337738E1,3.0873962E1,3.3893208E1,6.540923E0,5.286128E0,2.590227E1,6.130905E0,1.5184981E1,2.9112673E1,6.225067E0,2.2744535E1,8.129428E0,1.6643122E1,1.7250084E1,5.504976E0,9.680006E0,5.719544E0,2.3393127E1,1.4648319E1,8.096215E0,1.0822305E1,5.820818E0,1.1521704E1,5.7283816E0,5.123753E0,1.8269375E1,8.054187E0,6.5941324E0,5.738378E0,5.0839267E0,5.838166E0,5.683537E0],"tree_param":{"num_deleted":"0","num_feature":"60","num_nodes":"43","size_leaf_vector":"1"}},{"base_weights":[-4.9918666E-3,-7.857964E-1,4.9165452E-1,1.7843428E-1,-1.047327E0,1.2083182E-1,1.050358E0,3.898744E-2,-4.1515376E-2,-1.3028657E0,-1.840017E-1,4.4421425E-1,-5.222172E-1,3.676662E-3,1.2291635E0,-8.1909984E-2,-9.391833E-1,1.8375253E-2,-4.0065095E-2,-3.4897527E-1,6.9298595E-1,-8.542152E-1,1.0088578E-2,7.1101797E-1,1.4112337E0,-4.164143E-3,-1.2271525E0,-5.475491E-2,2.3107488E-2,-2.3686333E-2,9.403894E-1,-5.987766E-2,-7.185553E-3,1.2846986E-2,5.2149337E-2,8.3112754E-2,1.0048437E0,-7.513016E-2,-4.120825E-2,6.0985427E-2,5.750393E-3,2.2414487E-2,6.857556E-2],"categories":[],"categories_nodes":[],"categories_segments":[],"categories_sizes":[],"default_left":[0,0,0,0,1,0,0,0,0,0,0,0,0,0,0,0,0,0,0,0,0,0,0,0,1,0,0,0,0,0,0,0,0,0,0,0,0,0,0,0,0,0,0],"id":4,"left_children":[1,3,5,7,9,11,13,-1,-1,15,17,19,21,-1,23,-1,25,-1,-1,27,29,31,-1,33,35,-1,37,-1,-1,-1,39,-1,-1,-1,-1,-1,41,-1,-1,-1,-1,-1,-1],"loss_changes":[6.7628586E1,1.728434E1,2.1958815E1,9.940285E0,1.1558525E1,1.3791258E1,7.3148155E0,0E0,0E0,3.4738693E0,4.8491926E0,8.909511E0,5.5271506E0,0E0,2.3714447E0,0E0,5.335123E0,0E0,0E0,7.25566E0,1.0194218E1,3.600463E0,0E0,1.4379873E0,9.265709E-1,0E0,5.858307E-1,0E0,0E0,0E0,6.361061E0,0E0,0E0,0E0,0E0,0E0,1.8847427E0,0E0,0E0,0E0,0E0,0E0,0E0],"parents":[2147483647,0,0,1,1,2,2,3,3,4,4,5,5,6,6,9,9,10,10,11,11,12,12,14,14,16,16,19,19,20,20,21,21,23,23,24,24,26,26,30,30,36,36],"right_children":[2,4,6,8,10,12,14,-1,-1,16,18,20,22,-1,24,-1,26,-1,-1,28,30,32,-1,34,36,-1,38,-1,-1,-1,40,-1,-1,-1,-1,-1,42,-1,-1,-1,-1,-1,-1],"split_conditions":[6.3E2,6.0518E0,2.4E1,2.85101E1,3.76572E1,6.939E-1,6.1317183E-2,3.898744E-2,-4.1515376E-2,1.85E2,3.68837E1,6.642067E-2,6.4074874E-2,3.676662E-3,2.8E1,-8.1909984E-2,4.4497043E-2,1.8375253E-2,-4.0065095E-2,1.44582E1,1.5096619E1,2.1E2,1.0088578E-2,2.6073E1,1.6835016E1,-4.164143E-3,6.017E-1,-5.475491E-2,2.3107488E-2,-2.3686333E-2,4.8E1,-5.987766E-2,-7.185553E-3,1.2846986E-2,5.2149337E-2,8.3112754E-2,3.08E2,-7.513016E-2,-4.120825E-2,6.0985427E-2,5.750393E-3,2.2414487E-2,6.857556E-2],"split_indices":[25,44,30,50,43,29,13,0,0,24,46,13,19,0,30,0,10,0,0,41,38,23,0,51,38,0,36,0,0,0,58,0,0,0,0,0,24,0,0,0,0,0,0],"split_type":[0,0,0,0,0,0,0,0,0,0,0,0,0,0,0,0,0,0,0,0,0,0,0,0,0,0,0,0,0,0,0,0,0,0,0,0,0,0,0,0,0,0,0],"sum_hessian":[1.7240141E2,6.6799736E1,1.0560168E2,1.4320303E1,5.2479435E1,6.4204285E1,4.1397392E1,9.114265E0,5.2060375E0,4.010075E1,1.2378687E1,4.292631E1,2.1277973E1,6.6235895E0,3.47738E1,1.9040213E1,2.1060535E1,6.7514668E0,5.6272206E0,1.0152631E1,3.2773678E1,1.4464943E1,6.8130302E0,1.0317329E1,2.4456472E1,5.6265473E0,1.543399E1,5.105853E0,5.0467772E0,5.5737977E0,2.719988E1,9.290152E0,5.1747913E0,5.1064878E0,5.2108417E0,1.3207862E1,1.12486105E1,7.546877E0,7.887112E0,1.9965546E1,7.234336E0,5.35024E0,5.89837E0],"tree_param":{"num_deleted":"0","num_feature":"60","num_nodes":"43","size_leaf_vector":"1"}},{"base_weights":[-8.953058E-3,-7.569464E-1,4.873537E-1,-8.949732E-3,-9.9005646E-1,-1.4292704E-1,7.2097725E-1,2.18724E-2,-2.686658E-2,-7.140284E-2,-5.802541E-1,-4.561116E-1,3.082262E-2,8.6655855E-1,-1.23234846E-1,1.9726435E-2,-8.0681795E-1,4.6984735E-3,-8.470868E-1,4.2276435E-5,9.9542695E-1,2.8122617E-2,-4.3246113E-2,-6.586559E-2,-3.4093276E-1,-1.5380004E-2,-6.801935E-2,1.1927477E0,4.7772083E-1,1.0258925E-2,-4.8885867E-2,6.474495E-2,2.785529E-2,6.4529123E-4,5.397144E-2],"categories":[],"categories_nodes":[],"categories_segments":[],"categories_sizes":[],"default_left":[0,0,0,0,1,0,0,0,0,0,0,0,0,0,0,0,0,0,0,0,0,0,0,0,0,0,0,0,1,0,0,0,0,0,0],"id":5,"left_children":[1,3,5,7,9,11,13,-1,-1,-1,15,17,-1,19,21,-1,23,-1,25,-1,27,-1,-1,-1,29,-1,-1,31,33,-1,-1,-1,-1,-1,-1],"loss_changes":[6.41109E1,1.2001064E1,1.5391132E1,4.3331347E0,8.595394E0,7.1571317E0,9.436661E0,0E0,0E0,0E0,6.680855E0,4.6055713E0,0E0,7.236515E0,6.6101294E0,0E0,5.1885557E0,0E0,3.015625E0,0E0,5.1984367E0,0E0,0E0,0E0,4.9797792E0,0E0,0E0,1.8898506E0,4.810773E0,0E0,0E0,0E0,0E0,0E0,0E0],"parents":[2147483647,0,0,1,1,2,2,3,3,4,4,5,5,6,6,10,10,11,11,13,13,14,14,16,16,18,18,20,20,24,24,27,27,28,28],"right_children":[2,4,6,8,10,12,14,-1,-1,-1,16,18,-1,20,22,-1,24,-1,26,-1,28,-1,-1,-1,30,-1,-1,32,34,-1,-1,-1,-1,-1,-1],"split_conditions":[1.5E1,6.1929E0,6.442417E-2,2.85101E1,4.2997E0,8.061002E-2,7.143E-1,2.18724E-2,-2.686658E-2,-7.140284E-2,2.07E0,3.429462E-2,3.082262E-2,4.8526864E-2,1.0153256E-1,1.9726435E-2,3.788396E-2,4.6984735E-3,1.9972917E-1,4.2276435E-5,3.38696E-2,2.8122617E-2,-4.3246113E-2,-6.586559E-2,2.3039612E-1,-1.5380004E-2,-6.801935E-2,3.1535038E-1,1.10221E1,1.0258925E-2,-4.8885867E-2,6.474495E-2,2.785529E-2,6.4529123E-4,5.397144E-2],"split_indices":[30,44,13,50,42,14,29,0,0,0,54,21,0,16,12,0,18,0,27,0,21,0,0,0,3,0,0,2,41,0,0,0,0,0,0],"split_type":[0,0,0,0,0,0,0,0,0,0,0,0,0,0,0,0,0,0,0,0,0,0,0,0,0,0,0,0,0,0,0,0,0,0,0],"sum_hessian":[1.7070296E2,6.787783E1,1.0282513E2,1.6374432E1,5.15034E1,2.7911736E1,7.491339E1,8.969091E0,7.40534E0,2.3694143E1,2.7809258E1,2.0044365E1,7.867369E0,6.3872364E1,1.1041028E1,5.104779E0,2.270448E1,8.643325E0,1.140104E1,8.406394E0,5.546597E1,5.8626704E0,5.1783576E0,9.961556E0,1.2742922E1,6.338469E0,5.0625715E0,3.9215347E1,1.625062E1,7.2247295E0,5.518193E0,3.2892235E1,6.323115E0,9.744508E0,6.5061116E0],"tree_param":{"num_deleted":"0","num_feature":"60","num_nodes":"35","size_leaf_vector":"1"}},{"base_weights":[3.285378E-2,-8.567705E-1,3.764665E-1,-2.9776415E-2,-1.140334E0,1.158904E-3,8.352217E-1,-3.350514E-2,3.180208E-2,-2.0098217E-2,-6.8412006E-2,2.9036582E-1,-4.6877244E-1,1.161347E0,1.7126267E-1,1.4319968E-2,1.0503209E0,2.5912922E-2,-8.8388216E-1,7.3171005E-2,6.0941654E-1,5.563432E-1,-2.1110713E-2,-4.0800147E-2,2.802282E-1,3.1955488E-2,6.433964E-2,3.388497E-2,-3.568956E-2,-1.4283188E-2,-6.1057396E-2,4.8140395E-2,-3.8750346E-3,5.2524503E-2,-3.1043405E-3,-2.461881E-2,2.8447354E-2],"categories":[],"categories_nodes":[],"categories_segments":[],"categories_sizes":[],"default_left":[0,0,0,0,0,0,0,0,0,0,0,0,0,0,0,0,0,0,0,0,0,0,0,0,0,0,0,0,0,0,0,0,0,0,0,0,0],"id":6,"left_children":[1,3,5,7,9,11,13,-1,-1,-1,-1,15,17,19,21,23,25,27,29,-1,31,33,-1,-1,35,-1,-1,-1,-1,-1,-1,-1,-1,-1,-1,-1,-1],"loss_changes":[5.368726E1,1.1444164E1,2.1801018E1,6.1922326E0,5.5790176E0,9.737917E0,1.2138729E1,0E0,0E0,0E0,0E0,9.28921E0,5.6284494E0,5.449795E0,4.7921357E0,7.635723E0,3.2540607E-1,6.9570704E0,2.6515388E0,0E0,3.7566004E0,3.892893E0,0E0,0E0,6.1143656E0,0E0,0E0,0E0,0E0,0E0,0E0,0E0,0E0,0E0,0E0,0E0,0E0],"parents":[2147483647,0,0,1,1,2,2,3,3,4,4,5,5,6,6,11,11,12,12,13,13,14,14,15,15,16,16,17,17,18,18,20,20,21,21,24,24],"right_children":[2,4,6,8,10,12,14,-1,-1,-1,-1,16,18,20,22,24,26,28,30,-1,32,34,-1,-1,36,-1,-1,-1,-1,-1,-1,-1,-1,-1,-1,-1,-1],"split_conditions":[4.83E2,1.041E-1,1.577E3,1.0701107E-1,6.6E-1,5.7142857E-2,3.3389926E-2,-3.350514E-2,3.180208E-2,-2.0098217E-2,-6.8412006E-2,2.3943663E-1,3.014139E-1,5.600981E-2,-5.113E2,1.5004413E1,4.2861E1,3.5744682E-2,6.877E-1,7.3171005E-2,1.0153256E-1,2.346E-1,-2.1110713E-2,-4.0800147E-2,4.1509435E-2,3.1955488E-2,6.433964E-2,3.388497E-2,-3.568956E-2,-1.4283188E-2,-6.1057396E-2,4.8140395E-2,-3.8750346E-3,5.2524503E-2,-3.1043405E-3,-2.461881E-2,2.8447354E-2],"split_indices":[25,48,0,12,52,11,21,0,0,0,0,27,2,11,34,38,51,21,29,0,12,55,0,0,17,0,0,0,0,0,0,0,0,0,0,0,0],"split_type":[0,0,0,0,0,0,0,0,0,0,0,0,0,0,0,0,0,0,0,0,0,0,0,0,0,0,0,0,0,0,0,0,0,0,0,0,0],"sum_hessian":[1.7357349E2,4.79461E1,1.25627396E2,1.2524434E1,3.5421665E1,6.964959E1,5.5977802E1,6.3811536E0,6.14328E0,9.006417E0,2.6415247E1,4.3351906E1,2.6297684E1,3.7036823E1,1.8940979E1,3.2548016E1,1.0803889E1,1.2426558E1,1.3871125E1,2.2869066E1,1.4167757E1,1.15253E1,7.4156795E0,7.393232E0,2.5154785E1,5.296415E0,5.507475E0,6.6504083E0,5.7761493E0,5.6667814E0,8.204344E0,9.08979E0,5.0779676E0,6.018039E0,5.5072603E0,6.651135E0,1.850365E1],"tree_param":{"num_deleted":"0","num_feature":"60","num_nodes":"37","size_leaf_vector":"1"}},{"base_weights":[-6.306227E-3,3.6315927E-1,-8.497884E-1,1.1808214E-1,8.673137E-1,-1.3109543E0,-4.8438308E-1,2.4989817E-1,-7.042463E-1,2.834968E-3,1.0724496E0,-2.9640201E-2,-7.411208E-2,1.1499285E-1,-9.905335E-1,1.5569206E-1,6.0979974E-2,-8.920023E-3,-5.6976933E-2,1.3533345E0,5.303027E-1,3.7933167E-2,-2.7521262E-2,-1.6666876E-2,-6.7907415E-2,5.179003E-2,2.109249E-2,4.0316E-2,7.5296484E-2,4.5830302E-2,-6.7761965E-4,-3.194274E-2,1.4748489E-2],"categories":[],"categories_nodes":[],"categories_segments":[],"categories_sizes":[],"default_left":[1,0,0,0,0,0,0,0,0,0,1,0,0,0,0,0,0,0,0,0,0,0,0,0,0,0,0,0,0,0,0,0,0],"id":7,"left_children":[1,3,5,7,9,11,13,15,17,-1,19,-1,-1,21,23,25,-1,-1,-1,27,29,-1,-1,-1,-1,-1,31,-1,-1,-1,-1,-1,-1],"loss_changes":[5.348159E1,1.4644397E1,8.17345E0,9.006954E0,6.40493E0,1.8917542E0,9.442619E0,6.2917485E0,2.4329057E0,0E0,3.9991798E0,0E0,0E0,6.831267E0,3.6001434E0,7.7748766E0,0E0,0E0,0E0,4.3508148E-1,2.5787933E0,0E0,0E0,0E0,0E0,0E0,1.0690875E1,0E0,0E0,0E0,0E0,0E0,0E0],"parents":[2147483647,0,0,1,1,2,2,3,3,4,4,5,5,6,6,7,7,8,8,10,10,13,13,14,14,15,15,19,19,20,20,26,26],"right_children":[2,4,6,8,10,12,14,16,18,-1,20,-1,-1,22,24,26,-1,-1,-1,28,30,-1,-1,-1,-1,-1,32,-1,-1,-1,-1,-1,-1],"split_conditions":[-2.437E2,1.254E3,9.104938E-2,5.986696E-2,1.69647E1,2.135E-1,3.0385852E-1,8.41785E-2,7.365853E-2,2.834968E-3,6.296E-1,-2.9640201E-2,-7.411208E-2,1.7557251E1,7.983762E-2,5.849E-1,6.0979974E-2,-8.920023E-3,-5.6976933E-2,3.3980582E-2,7.371795E-2,3.7933167E-2,-2.7521262E-2,-1.6666876E-2,-6.7907415E-2,5.179003E-2,6.5155804E-2,4.0316E-2,7.5296484E-2,4.5830302E-2,-6.7761965E-4,-3.194274E-2,1.4748489E-2],"split_indices":[34,25,26,17,51,55,2,13,9,0,36,0,0,38,8,36,0,0,0,22,8,0,0,0,0,0,13,0,0,0,0,0,0],"split_type":[0,0,0,0,0,0,0,0,0,0,0,0,0,0,0,0,0,0,0,0,0,0,0,0,0,0,0,0,0,0,0,0,0],"sum_hessian":[1.6962442E2,1.1835259E2,5.1271828E1,8.0469406E1,3.7883183E1,2.1521984E1,2.9749846E1,6.9952415E1,1.0516989E1,7.908476E0,2.9974709E1,5.0037622E0,1.651822E1,1.3974388E1,1.5775457E1,6.481612E1,5.1363034E0,5.4015727E0,5.1154165E0,1.8759306E1,1.1215402E1,7.032041E0,6.9423466E0,6.342873E0,9.432584E0,7.709626E0,5.7106487E1,5.462325E0,1.3296981E1,6.156804E0,5.058598E0,1.6357668E1,4.074882E1],"tree_param":{"num_deleted":"0","num_feature":"60","num_nodes":"33","size_leaf_vector":"1"}},{"base_weights":[3.3605958E-3,-6.5537685E-1,4.5346618E-1,-6.920184E-2,-4.042189E-1,-3.401354E-1,6.041602E-1,7.370544E-2,-9.7025645E-1,-6.5944123E-1,1.5418218E-2,-3.08123E-1,7.32446E-1,4.5637342E-1,-3.8236046E-1,-2.5829634E-2,-1.2414207E0,-1.2220774E-2,-4.967118E-2,-5.7096757E-2,2.8771404E-2,1.0670531E-1,8.5604995E-1,-1.1860836E-2,4.109511E-2,-4.077587E-2,9.353637E-3,-7.1624905E-2,-3.729635E-2,-2.3002664E-2,3.004159E-2,-4.499066E-3,9.701073E-1,5.445542E-2,1.6925702E-2],"categories":[],"categories_nodes":[],"categories_segments":[],"categories_sizes":[],"default_left":[0,0,0,0,0,1,0,0,0,0,0,0,0,0,0,0,0,0,0,0,0,0,0,0,0,0,0,0,0,0,0,0,0,0,0],"id":8,"left_children":[1,3,5,-1,7,9,11,13,15,17,-1,19,21,23,25,-1,27,-1,-1,-1,-1,29,31,-1,-1,-1,-1,-1,-1,-1,-1,-1,33,-1,-1],"loss_changes":[5.011179E1,1.1996294E1,1.2212503E1,0E0,1.425604E1,3.6535614E0,1.0142885E1,5.2982883E0,2.3202953E0,1.3489237E0,0E0,8.872084E0,5.6775703E0,4.3578844E0,3.5906754E0,0E0,2.9059982E-1,0E0,0E0,0E0,0E0,4.0418596E0,6.7925415E0,0E0,0E0,0E0,0E0,0E0,0E0,0E0,0E0,0E0,3.80579E0,0E0,0E0],"parents":[2147483647,0,0,1,1,2,2,4,4,5,5,6,6,7,7,8,8,9,9,11,11,12,12,13,13,14,14,16,16,21,21,22,22,32,32],"right_children":[2,4,6,-1,8,10,12,14,16,18,-1,20,22,24,26,-1,28,-1,-1,-1,-1,30,32,-1,-1,-1,-1,-1,-1,-1,-1,-1,34,-1,-1],"split_conditions":[1.5E1,1.14E2,6.6E2,-6.920184E-2,5.839416E-2,3.13615E1,3.8305543E-2,6.63883E1,-2.329E2,1.00432E1,1.5418218E-2,5.2317318E-2,5.702528E-2,6.896552E-2,9.959759E-2,-2.5829634E-2,6.028E-1,-1.2220774E-2,-4.967118E-2,-5.7096757E-2,2.8771404E-2,7.6612905E-2,3.1080031E0,-1.1860836E-2,4.109511E-2,-4.077587E-2,9.353637E-3,-7.1624905E-2,-3.729635E-2,-2.3002664E-2,3.004159E-2,-4.499066E-3,1.0513142E-1,5.445542E-2,1.6925702E-2],"split_indices":[30,24,25,0,11,46,17,51,34,44,0,10,20,15,7,0,36,0,0,0,0,8,33,0,0,0,0,0,0,0,0,0,7,0,0],"split_type":[0,0,0,0,0,0,0,0,0,0,0,0,0,0,0,0,0,0,0,0,0,0,0,0,0,0,0,0,0,0,0,0,0,0,0],"sum_hessian":[1.6700797E2,6.760736E1,9.940061E1,1.6173666E1,5.1433693E1,1.5662083E1,8.373853E1,2.8359018E1,2.3074677E1,1.0483423E1,5.17866E0,1.0150819E1,7.358771E1,1.5419996E1,1.2939021E1,9.719252E0,1.3355424E1,5.4467716E0,5.0366516E0,5.0719514E0,5.0788674E0,1.2445597E1,6.1142113E1,5.4429812E0,9.977015E0,7.1034255E0,5.8355956E0,8.273762E0,5.081662E0,5.828881E0,6.6167164E0,6.6011324E0,5.454098E1,4.528439E1,9.256593E0],"tree_param":{"num_deleted":"0","num_feature":"60","num_nodes":"35","size_leaf_vector":"1"}},{"base_weights":[-7.7704385E-2,-8.1775707E-1,2.6550496E-1,-4.5249003E-1,-1.2192637E0,5.8051413E-1,-2.117892E-1,-1.1092722E0,1.8685931E-1,-7.0718706E-2,-3.03708E-2,9.973992E-1,1.6581817E-1,-6.8127915E-2,-2.2344004E-2,-3.1458627E-2,-6.564723E-2,2.8340636E-2,-2.0157166E-2,1.1930743E0,8.702533E-3,4.338469E-1,-2.5452359E-2,-2.7898753E-1,4.934511E-1,6.717833E-2,2.5844023E-2,-2.4972808E-1,8.62734E-1,-5.427143E-1,2.3961093E-2,4.505165E-2,2.8874254E-4,-2.2880098E-2,1.7341755E-4,6.141156E-2,5.138201E-3,-1.271603E-2,-5.4610696E-2],"categories":[],"categories_nodes":[],"categories_segments":[],"categories_sizes":[],"default_left":[0,0,0,0,1,1,0,0,0,0,0,0,0,0,1,0,0,0,0,0,0,0,0,0,0,0,0,0,0,0,0,0,0,0,0,0,0,0,0],"id":9,"left_children":[1,3,5,7,9,11,13,15,17,-1,-1,19,21,-1,23,-1,-1,-1,-1,25,-1,27,-1,29,31,-1,-1,33,35,37,-1,-1,-1,-1,-1,-1,-1,-1,-1],"loss_changes":[4.3945972E1,7.483967E0,1.7920624E1,1.2922689E1,2.1863594E0,1.2208885E1,1.0389527E1,6.4860153E-1,3.8601165E0,0E0,0E0,5.510887E0,6.928384E0,0E0,5.704956E0,0E0,0E0,0E0,0E0,2.2065926E0,0E0,8.154952E0,0E0,6.0033765E0,2.8440554E0,0E0,0E0,5.9191966E-1,4.5583E0,3.1735826E0,0E0,0E0,0E0,0E0,0E0,0E0,0E0,0E0,0E0],"parents":[2147483647,0,0,1,1,2,2,3,3,4,4,5,5,6,6,7,7,8,8,11,11,12,12,14,14,19,19,21,21,23,23,24,24,27,27,28,28,29,29],"right_children":[2,4,6,8,10,12,14,16,18,-1,-1,20,22,-1,24,-1,-1,-1,-1,26,-1,28,-1,30,32,-1,-1,34,36,38,-1,-1,-1,-1,-1,-1,-1,-1,-1],"split_conditions":[9.95E2,5.839416E-2,3.38696E-2,9.104938E-2,2.127E-1,-4.19E2,5.959E-1,3.2E1,4.253112E-1,-7.0718706E-2,-3.03708E-2,2.95692E1,4.9234137E-2,-6.8127915E-2,8.2417E0,-3.1458627E-2,-6.564723E-2,2.8340636E-2,-2.0157166E-2,3.0792227E-1,8.702533E-3,3.791887E-2,-2.5452359E-2,6.2166963E0,3.64E2,6.717833E-2,2.5844023E-2,3.7869822E-2,6.27287E0,2.9904762E-1,2.3961093E-2,4.505165E-2,2.8874254E-4,-2.2880098E-2,1.7341755E-4,6.141156E-2,5.138201E-3,-1.271603E-2,-5.4610696E-2],"split_indices":[0,11,21,26,48,34,29,58,6,0,0,50,17,0,42,0,0,0,0,2,0,17,0,33,53,0,0,22,33,2,0,0,0,0,0,0,0,0,0],"split_type":[0,0,0,0,0,0,0,0,0,0,0,0,0,0,0,0,0,0,0,0,0,0,0,0,0,0,0,0,0,0,0,0,0,0,0,0,0,0,0],"sum_hessian":[1.711656E2,5.3792236E1,1.1737337E2,2.9281048E1,2.4511189E1,7.057701E1,4.6796356E1,1.4081052E1,1.5199996E1,1.759024E1,6.920947E0,3.4494892E1,3.6082115E1,5.7395544E0,4.10568E1,5.4122806E0,8.668771E0,9.269727E0,5.930269E0,2.7508284E1,6.9866085E0,2.6080965E1,1.000115E1,2.772221E1,1.3334593E1,2.1693314E1,5.814971E0,1.0216033E1,1.5864932E1,2.0778925E1,6.9432845E0,6.8020687E0,6.5325246E0,5.166799E0,5.049234E0,1.0296712E1,5.56822E0,1.4586381E1,6.1925435E0],"tree_param":{"num_deleted":"0","num_feature":"60","num_nodes":"39","size_leaf_vector":"1"}},{"base_weights":[-2.2771668E-2,-7.8800017E-1,3.3680838E-1,-1.7633793E-1,-1.0215946E0,6.01041E-1,-1.0969596E-1,2.193397E-2,-3.484008E-2,-1.3148685E0,-5.9682155E-1,8.608298E-1,8.05345E-3,-4.1411188E-1,6.6767657E-1,-7.115946E-2,-4.066228E-2,-5.454177E-3,-5.3928096E-2,-4.8666093E-3,9.8814285E-1,3.746507E-1,-3.8856067E-2,-5.658855E-2,-1.245223E-1,4.5035966E-3,5.5637788E-2,1.1316658E0,-1.8614288E-3,-4.0279003E-3,4.8962265E-2,2.6385292E-2,-4.8001298E-1,1.9551065E-2,6.219069E-2,-4.6157006E-2,3.3766825E-3],"categories":[],"categories_nodes":[],"categories_segments":[],"categories_sizes":[],"default_left":[0,0,0,0,1,0,0,0,0,0,0,0,0,0,0,0,0,0,0,0,0,0,0,0,0,0,0,0,0,0,0,0,0,0,0,0,0],"id":10,"left_children":[1,3,5,7,9,11,13,-1,-1,15,17,19,21,23,25,-1,-1,-1,-1,-1,27,29,-1,-1,31,-1,-1,33,-1,-1,-1,-1,35,-1,-1,-1,-1],"loss_changes":[4.6394917E1,7.520069E0,1.3604609E1,5.4599323E0,4.0475426E0,1.1122566E1,1.0572354E1,0E0,0E0,4.4288635E-2,4.035173E0,6.223213E0,6.9167657E0,6.4849567E0,3.1456347E0,0E0,0E0,0E0,0E0,0E0,6.5800247E0,4.583204E0,0E0,0E0,5.7806954E0,0E0,0E0,2.7532806E0,0E0,0E0,0E0,0E0,3.9331086E0,0E0,0E0,0E0,0E0],"parents":[2147483647,0,0,1,1,2,2,3,3,4,4,5,5,6,6,9,9,10,10,11,11,12,12,13,13,14,14,20,20,21,21,24,24,27,27,32,32],"right_children":[2,4,6,8,10,12,14,-1,-1,16,18,20,22,24,26,-1,-1,-1,-1,-1,28,30,-1,-1,32,-1,-1,34,-1,-1,-1,-1,36,-1,-1,-1,-1],"split_conditions":[9.95E2,7.1036E0,3.4351144E-2,2.948557E-2,2.87549E1,1.0721063E-1,1.254E3,2.193397E-2,-3.484008E-2,3.24E2,6.852E-1,1.71E2,6.131841E-1,6.317E-1,5.222437E-2,-7.115946E-2,-4.066228E-2,-5.454177E-3,-5.3928096E-2,-4.8666093E-3,2.4562682E-1,2.65E2,-3.8856067E-2,-5.658855E-2,8.946488E-2,4.5035966E-3,5.5637788E-2,8.322581E-2,-1.8614288E-3,-4.0279003E-3,4.8962265E-2,2.6385292E-2,4.0735874E-2,1.9551065E-2,6.219069E-2,-4.6157006E-2,3.3766825E-3],"split_indices":[0,41,21,21,43,12,25,0,0,25,29,24,5,29,10,0,0,0,0,0,3,23,0,0,12,0,0,12,0,0,0,0,22,0,0,0,0],"split_type":[0,0,0,0,0,0,0,0,0,0,0,0,0,0,0,0,0,0,0,0,0,0,0,0,0,0,0,0,0,0,0,0,0,0,0,0,0],"sum_hessian":[1.6664557E2,5.289256E1,1.1375301E2,1.5102324E1,3.7790237E1,7.1245316E1,4.25077E1,6.9943886E0,8.107935E0,2.111586E1,1.6674376E1,4.9227142E1,2.2018171E1,3.0881805E1,1.1625896E1,1.5854962E1,5.2608976E0,8.895034E0,7.779341E0,5.801368E0,4.3425777E1,1.5366441E1,6.65173E0,8.042569E0,2.2839235E1,5.582953E0,6.0429435E0,3.8002792E1,5.4229813E0,9.260684E0,6.1057568E0,7.8860493E0,1.4953186E1,5.587645E0,3.241515E1,7.8855157E0,7.067671E0],"tree_param":{"num_deleted":"0","num_feature":"60","num_nodes":"37","size_leaf_vector":"1"}},{"base_weights":[1.1223403E-2,-6.0121596E-1,4.2412564E-1,-6.867144E-2,-4.1458476E-1,-3.2792407E-1,5.62533E-1,-2.876498E-2,-8.694892E-1,1.1222641E-2,-3.2216053E-2,7.5017244E-1,-1.2113009E-2,4.2950323E-1,-6.032433E-1,-4.538338E-1,-1.1417838E0,1.0072836E0,2.2805117E-1,2.7856959E-2,-4.7341594E-1,5.014891E-2,-1.9836599E-2,4.24605E-3,-5.365619E-2,-1.8242075E-3,-4.2590003E-2,-7.0348956E-2,-3.54946E-2,1.1226203E-2,1.1622137E0,6.4698267E-1,-1.7506463E-2,9.178888E-4,-4.6799313E-2,3.6471415E-2,6.845754E-2,3.5004688E-3,6.418194E-2],"categories":[],"categories_nodes":[],"categories_segments":[],"categories_sizes":[],"default_left":[0,0,1,0,0,0,0,0,0,0,0,0,0,0,0,0,0,0,0,0,0,0,0,0,0,0,0,0,0,0,0,0,0,0,0,0,0,0,0],"id":11,"left_children":[1,3,5,-1,7,9,11,13,15,-1,-1,17,19,21,23,25,27,29,31,-1,33,-1,-1,-1,-1,-1,-1,-1,-1,-1,35,37,-1,-1,-1,-1,-1,-1,-1],"loss_changes":[4.3413643E1,9.395281E0,1.0856541E1,0E0,9.999569E0,3.0402327E0,9.385653E0,8.667565E0,2.4445896E0,0E0,0E0,8.572666E0,6.143226E0,9.092928E0,4.808391E0,1.9654748E0,7.371578E-1,5.031708E0,5.7800756E0,0E0,2.9535115E0,0E0,0E0,0E0,0E0,0E0,0E0,0E0,0E0,0E0,2.242653E0,4.922766E0,0E0,0E0,0E0,0E0,0E0,0E0,0E0],"parents":[2147483647,0,0,1,1,2,2,4,4,5,5,6,6,7,7,8,8,11,11,12,12,13,13,14,14,15,15,16,16,17,17,18,18,20,20,30,30,31,31],"right_children":[2,4,6,-1,8,10,12,14,16,-1,-1,18,20,22,24,26,28,30,32,-1,34,-1,-1,-1,-1,-1,-1,-1,-1,-1,36,38,-1,-1,-1,-1,-1,-1,-1],"split_conditions":[1.5E1,5.18E2,2.05E2,-6.867144E-2,5.839416E-2,1.00432E1,3.8272817E-2,2.80205E1,2E0,1.1222641E-2,-3.2216053E-2,5.910194E-1,6.08365E-2,1.7053E1,2.346E-1,6.116505E-2,7.2704084E-2,4.8582997E-2,1.0663507E-1,2.7856959E-2,1.734104E1,5.014891E-2,-1.9836599E-2,4.24605E-3,-5.365619E-2,-1.8242075E-3,-4.2590003E-2,-7.0348956E-2,-3.54946E-2,1.1226203E-2,6.7482E0,5.7251908E-2,-1.7506463E-2,9.178888E-4,-4.6799313E-2,3.6471415E-2,6.845754E-2,3.5004688E-3,6.418194E-2],"split_indices":[30,0,53,0,11,44,21,50,57,0,0,5,9,45,55,19,15,16,12,0,38,0,0,0,0,0,0,0,0,0,45,11,0,0,0,0,0,0,0],"split_type":[0,0,0,0,0,0,0,0,0,0,0,0,0,0,0,0,0,0,0,0,0,0,0,0,0,0,0,0,0,0,0,0,0,0,0,0,0,0,0],"sum_hessian":[1.6967015E2,6.8142044E1,1.0152811E2,1.2025557E1,5.611649E1,1.55681E1,8.596001E1,3.0939169E1,2.5177319E1,5.7755466E0,9.792553E0,6.457037E1,2.1389637E1,1.7350681E1,1.3588488E1,1.1020825E1,1.4156493E1,4.2642475E1,2.1927895E1,9.481556E0,1.1908081E1,1.0115666E1,7.235015E0,5.845996E0,7.7424912E0,5.912269E0,5.1085567E0,7.372087E0,6.7844067E0,7.4502864E0,3.519219E1,1.2646E1,9.281895E0,6.2373075E0,5.6707735E0,1.2847656E1,2.2344534E1,7.216221E0,5.4297786E0],"tree_param":{"num_deleted":"0","num_feature":"60","num_nodes":"39","size_leaf_vector":"1"}},{"base_weights":[-5.0529886E-2,-6.024201E-1,3.2120475E-1,1.766991E-1,-8.184758E-1,3.907509E-2,6.893923E-1,3.0704588E-2,-2.5285928E-2,-1.0127387E0,-1.4083673E-1,2.1743214E-1,-3.8911663E-2,4.115571E-1,1.1149536E0,-6.760308E-2,-6.440842E-1,2.2266096E-2,-3.7283614E-2,3.7699887E-1,-3.1289026E-2,-1.6003447E-2,6.9145584E-1,6.6544585E-2,2.5756335E-2,7.3037515E-3,-9.29684E-1,-2.8181824E-1,6.0790837E-1,3.8073143E-1,6.599717E-2,-5.6044556E-2,-2.1602185E-2,1.5901497E-2,-4.06545E-2,5.1767804E-2,8.731507E-3,-8.161965E-3,3.6603477E-2],"categories":[],"categories_nodes":[],"categories_segments":[],"categories_sizes":[],"default_left":[0,0,0,0,1,0,0,0,0,0,0,0,0,0,0,0,0,0,0,0,0,0,1,0,0,0,0,0,0,0,0,0,0,0,0,0,0,0,0],"id":12,"left_children":[1,3,5,7,9,11,13,-1,-1,15,17,19,-1,21,23,-1,25,-1,-1,27,-1,-1,29,-1,-1,-1,31,33,35,37,-1,-1,-1,-1,-1,-1,-1,-1,-1],"loss_changes":[3.445684E1,1.151807E1,1.0406998E1,4.9343953E0,6.844055E0,8.613666E0,4.6863537E0,0E0,0E0,4.2689056E0,4.936208E0,6.7391286E0,0E0,5.9373727E0,1.465004E0,0E0,5.01079E0,0E0,0E0,6.4490757E0,0E0,0E0,3.5019274E0,0E0,0E0,0E0,1.0384483E0,3.8893654E0,5.5370693E0,3.0105429E0,0E0,0E0,0E0,0E0,0E0,0E0,0E0,0E0,0E0],"parents":[2147483647,0,0,1,1,2,2,3,3,4,4,5,5,6,6,9,9,10,10,11,11,13,13,14,14,16,16,19,19,22,22,26,26,27,27,28,28,29,29],"right_children":[2,4,6,8,10,12,14,-1,-1,16,18,20,-1,22,24,-1,26,-1,-1,28,-1,-1,30,-1,-1,-1,32,34,36,38,-1,-1,-1,-1,-1,-1,-1,-1,-1],"split_conditions":[1.5E1,6.0518E0,2.4E1,2.387E-1,6.4416E0,2.35266E1,7.665505E-2,3.0704588E-2,-2.5285928E-2,1.85E2,5E0,8.5443035E-2,-3.8911663E-2,4.883382E-2,7.751938E-2,-6.760308E-2,5.4459352E-2,2.2266096E-2,-3.7283614E-2,2.0177384E-1,-3.1289026E-2,-1.6003447E-2,1.08E2,6.6544585E-2,2.5756335E-2,7.3037515E-3,7.2961375E-2,2.73429E1,2.8143E1,6.8333335E-2,6.599717E-2,-5.6044556E-2,-2.1602185E-2,1.5901497E-2,-4.06545E-2,5.1767804E-2,8.731507E-3,-8.161965E-3,3.6603477E-2],"split_indices":[30,44,30,55,42,45,13,0,0,24,32,15,0,10,8,0,11,0,0,3,0,0,58,0,0,0,15,50,50,14,0,0,0,0,0,0,0,0,0],"split_type":[0,0,0,0,0,0,0,0,0,0,0,0,0,0,0,0,0,0,0,0,0,0,0,0,0,0,0,0,0,0,0,0,0,0,0,0,0,0,0],"sum_hessian":[1.6601057E2,6.656512E1,9.944546E1,1.449105E1,5.207407E1,5.69289E1,4.251656E1,8.89193E0,5.5991206E0,4.008744E1,1.1986627E1,4.7333515E1,9.595387E0,2.6913012E1,1.5603546E1,1.94851E1,2.060234E1,6.2212324E0,5.7653937E0,4.0266518E1,7.066998E0,7.4073796E0,1.9505632E1,1.057702E1,5.026526E0,5.5993476E0,1.5002994E1,1.0393094E1,2.9873423E1,1.4127021E1,5.3786125E0,9.933759E0,5.0692344E0,5.070019E0,5.323076E0,1.4338392E1,1.5535029E1,5.753835E0,8.373185E0],"tree_param":{"num_deleted":"0","num_feature":"60","num_nodes":"39","size_leaf_vector":"1"}},{"base_weights":[-2.1201486E-2,2.6873735E-1,-7.2333217E-1,-5.9288736E-2,3.5380787E-1,-1.1623363E0,-4.3263468E-1,5.275983E-1,-3.621027E-1,-6.6112734E-2,-3.8661864E-2,-9.295156E-2,-9.487815E-1,-1.82667E-2,6.037074E-1,-7.4955946E-1,1.8351603E-2,-4.6747395E-1,3.187218E-2,-2.4999736E-2,-6.408995E-2,8.500677E-1,2.2659858E-1,-6.1777413E-2,-8.473892E-3,3.5662856E-3,-4.6512082E-2,2.6063123E-3,4.830232E-2,2.3641236E-2,-3.399265E-2],"categories":[],"categories_nodes":[],"categories_segments":[],"categories_sizes":[],"default_left":[1,0,0,0,0,0,0,0,0,0,0,0,0,0,0,0,0,0,0,0,0,0,0,0,0,0,0,0,0,0,0],"id":13,"left_children":[1,3,5,-1,7,9,11,13,15,-1,-1,17,19,-1,21,23,-1,25,-1,-1,-1,27,29,-1,-1,-1,-1,-1,-1,-1,-1],"loss_changes":[3.485184E1,1.5418626E1,5.8813076E0,0E0,1.4535313E1,1.8077087E-1,5.4678197E0,6.5528965E0,6.8048296E0,0E0,0E0,5.8292685E0,1.2226658E0,0E0,7.8191013E0,4.138196E0,0E0,3.5429916E0,0E0,0E0,0E0,4.743141E0,8.231181E0,0E0,0E0,0E0,0E0,0E0,0E0,0E0,0E0],"parents":[2147483647,0,0,1,1,2,2,4,4,5,5,6,6,7,7,8,8,11,11,12,12,14,14,15,15,17,17,21,21,22,22],"right_children":[2,4,6,-1,8,10,12,14,16,-1,-1,18,20,-1,22,24,-1,26,-1,-1,-1,28,30,-1,-1,-1,-1,-1,-1,-1,-1],"split_conditions":[-2.437E2,5.8E-1,6.91E2,-5.9288736E-2,7.114E-1,1.14E2,1.39018E1,2.0797227E-2,1.772E3,-6.6112734E-2,-3.8661864E-2,6.165E-1,7.533415E-2,-1.82667E-2,3.38696E-2,6.010607E-2,1.8351603E-2,6.475904E-2,3.187218E-2,-2.4999736E-2,-6.408995E-2,1.133E3,5.8780843E-1,-6.1777413E-2,-8.473892E-3,3.5662856E-3,-4.6512082E-2,2.6063123E-3,4.830232E-2,2.3641236E-2,-3.399265E-2],"split_indices":[34,29,0,0,29,24,45,21,0,0,0,36,14,0,21,20,0,13,0,0,0,0,5,0,0,0,0,0,0,0,0],"split_type":[0,0,0,0,0,0,0,0,0,0,0,0,0,0,0,0,0,0,0,0,0,0,0,0,0,0,0,0,0,0,0],"sum_hessian":[1.6924422E2,1.20218346E2,4.902588E1,5.9277987E0,1.1429054E2,1.8336344E1,3.0689533E1,9.217717E1,2.2113377E1,1.1295632E1,7.040711E0,1.9220411E1,1.1469123E1,6.9411817E0,8.523599E1,1.4421753E1,7.6916237E0,1.2943424E1,6.2769876E0,5.950888E0,5.5182347E0,5.079688E1,3.4439114E1,7.232474E0,7.1892786E0,6.3712544E0,6.5721693E0,6.6301866E0,4.416669E1,2.7458685E1,6.9804273E0],"tree_param":{"num_deleted":"0","num_feature":"60","num_nodes":"31","size_leaf_vector":"1"}},{"base_weights":[2.4086477E-2,-7.3492706E-1,3.294329E-1,-4.5595232E-1,-6.261985E-2,1.0680757E-1,9.008197E-1,2.207653E-2,-7.2758687E-1,1.9741435E-1,-4.7207676E-2,1.0667325E0,1.8247169E-3,-1.1468099E0,-2.4645631E-1,-8.324273E-2,5.61522E-1,6.9664836E-2,7.3179966E-1,-6.8411164E-2,-3.653339E-2,-4.5038145E-2,2.6419086E-2,4.4680618E-2,-2.4047387E-1,-6.986264E-3,7.6238173E-1,1.4681781E-2,6.377711E-2,-3.046899E-2,1.516476E-2,-8.374083E-3,5.0716627E-2],"categories":[],"categories_nodes":[],"categories_segments":[],"categories_sizes":[],"default_left":[0,0,0,0,0,0,0,0,0,0,0,0,0,0,0,0,0,0,1,0,0,0,0,0,1,0,0,0,0,0,0,0,0],"id":14,"left_children":[1,3,5,7,-1,9,11,-1,13,15,-1,17,-1,19,21,23,25,-1,27,-1,-1,-1,-1,-1,29,-1,31,-1,-1,-1,-1,-1,-1],"loss_changes":[3.6815712E1,6.009165E0,1.4306614E1,7.924475E0,0E0,8.053203E0,4.494253E0,0E0,4.6225977E0,7.903428E0,0E0,1.8772774E0,0E0,1.7248344E-1,6.862555E0,7.0171933E0,4.83852E0,0E0,3.242404E0,0E0,0E0,0E0,0E0,0E0,7.9953537E0,0E0,6.324436E0,0E0,0E0,0E0,0E0,0E0,0E0],"parents":[2147483647,0,0,1,1,2,2,3,3,5,5,6,6,8,8,9,9,11,11,13,13,14,14,15,15,16,16,18,18,24,24,26,26],"right_children":[2,4,6,8,-1,10,12,-1,14,16,-1,18,-1,20,22,24,26,-1,28,-1,-1,-1,-1,-1,30,-1,32,-1,-1,-1,-1,-1,-1],"split_conditions":[9.89E2,2.86327E1,7.721797E-2,7.3675E0,-6.261985E-2,2.4755839E-1,5.8315333E-2,2.207653E-2,6.0475163E-2,2.1578299E-1,-4.7207676E-2,2E0,1.8247169E-3,5.2575108E-2,3.9E2,1.696E-1,1.97E2,6.9664836E-2,8.994E-1,-6.8411164E-2,-3.653339E-2,-4.5038145E-2,2.6419086E-2,4.4680618E-2,4.69874E1,-6.986264E-3,5.201401E-1,1.4681781E-2,6.377711E-2,-3.046899E-2,1.516476E-2,-8.374083E-3,5.0716627E-2],"split_indices":[0,50,13,44,0,3,11,0,19,3,0,57,0,19,25,55,24,0,56,0,0,0,0,0,43,0,28,0,0,0,0,0,0],"split_type":[0,0,0,0,0,0,0,0,0,0,0,0,0,0,0,0,0,0,0,0,0,0,0,0,0,0,0,0,0,0,0,0,0],"sum_hessian":[1.5680669E2,4.458152E1,1.12225174E2,3.0187931E1,1.4393587E1,8.161359E1,3.061159E1,6.8685904E0,2.3319342E1,7.588357E1,5.730013E0,2.5485338E1,5.1262517E0,1.1722024E1,1.1597317E1,4.3288124E1,3.2595448E1,1.1303923E1,1.4181415E1,6.157814E0,5.5642104E0,6.1995945E0,5.3977222E0,5.352203E0,3.793592E1,7.325346E0,2.5270103E1,8.705936E0,5.475478E0,2.253022E1,1.5405699E1,5.458805E0,1.9811298E1],"tree_param":{"num_deleted":"0","num_feature":"60","num_nodes":"33","size_leaf_vector":"1"}},{"base_weights":[2.3176078E-2,-4.9774325E-1,3.7350023E-1,-3.8442712E-2,-7.7723676E-1,-3.5255644E-2,4.6421507E-1,-4.5688424E-2,2.4433655E-1,-1.0896747E0,-4.7797034E-3,6.8531275E-1,1.0751421E-1,4.557647E-2,-3.2950684E-2,-6.557248E-2,-6.533998E-1,3.0018672E-2,-2.9705757E-2,-5.611371E-2,8.6034286E-1,2.8681278E-1,-4.097685E-2,3.190652E-2,-3.156306E-2,-5.0730873E-2,-1.0862409E-2,-3.4866445E-2,2.7872983E-2,1.061521E0,3.400986E-1,6.211405E-1,-1.0427959E-1,6.924259E-2,3.8388845E-2,6.52537E-2,-1.7694807E-2,6.374131E-2,1.013926E-2,-4.009321E-2,1.817864E-2],"categories":[],"categories_nodes":[],"categories_segments":[],"categories_sizes":[],"default_left":[0,0,0,0,1,0,0,0,0,0,0,0,0,0,0,0,1,0,0,0,0,0,0,0,0,0,0,0,0,0,0,1,1,0,0,0,0,0,0,0,0],"id":15,"left_children":[1,3,5,7,9,-1,11,-1,13,15,17,19,21,-1,23,-1,25,-1,-1,27,29,31,-1,-1,-1,-1,-1,-1,-1,33,35,37,39,-1,-1,-1,-1,-1,-1,-1,-1],"loss_changes":[3.0221292E1,8.52071E0,1.0011925E1,6.720919E0,9.976225E0,0E0,7.1742554E0,0E0,3.846651E0,1.9918137E0,4.9626493E0,7.3867874E0,6.2776012E0,0E0,6.6417007E0,0E0,1.6568327E0,0E0,0E0,5.0071874E0,4.4335785E0,4.144557E0,0E0,0E0,0E0,0E0,0E0,0E0,0E0,2.0295677E0,1.0002408E1,4.3811336E0,5.264241E0,0E0,0E0,0E0,0E0,0E0,0E0,0E0,0E0],"parents":[2147483647,0,0,1,1,2,2,3,3,4,4,6,6,8,8,9,9,10,10,11,11,12,12,14,14,16,16,19,19,20,20,21,21,29,29,30,30,31,31,32,32],"right_children":[2,4,6,8,10,-1,12,-1,14,16,18,20,22,-1,24,-1,26,-1,-1,28,30,32,-1,-1,-1,-1,-1,-1,-1,34,36,38,40,-1,-1,-1,-1,-1,-1,-1,-1],"split_conditions":[1.5E1,8.4416E0,3.746792E-1,5.952E-1,6.5439E0,-3.5255644E-2,3.38696E-2,-4.5688424E-2,1.9734E1,2.911917E-1,5E0,3.258427E-2,8.730964E-2,4.557647E-2,8.5864E0,-6.557248E-2,4.1849E0,3.0018672E-2,-2.9705757E-2,2.66923E1,5.7142857E-2,7.2938144E-1,-4.097685E-2,3.190652E-2,-3.156306E-2,-5.0730873E-2,-1.0862409E-2,-3.4866445E-2,2.7872983E-2,9.297052E-2,6.248357E-1,5.974E-1,6.094E-1,6.924259E-2,3.8388845E-2,6.52537E-2,-1.7694807E-2,6.374131E-2,1.013926E-2,-4.009321E-2,1.817864E-2],"split_indices":[30,45,28,36,42,0,21,0,51,1,32,18,15,0,49,0,42,0,0,50,11,28,0,0,0,0,0,0,0,7,28,36,36,0,0,0,0,0,0,0,0],"split_type":[0,0,0,0,0,0,0,0,0,0,0,0,0,0,0,0,0,0,0,0,0,0,0,0,0,0,0,0,0,0,0,0,0,0,0,0,0,0,0,0,0],"sum_hessian":[1.635859E2,6.5608154E1,9.797776E1,2.5250597E1,4.035756E1,7.075551E0,9.090221E1,5.620696E0,1.9629902E1,2.8442625E1,1.1914933E1,5.5549267E1,3.535294E1,5.091562E0,1.453834E1,1.7526987E1,1.0915638E1,5.8693357E0,6.0455976E0,1.0738874E1,4.481039E1,3.0202225E1,5.150716E0,6.82108E0,7.7172594E0,5.245258E0,5.67038E0,5.184405E0,5.554469E0,3.1564129E1,1.32462635E1,1.5965662E1,1.4236562E1,1.3257181E1,1.8306948E1,5.1729436E0,8.073319E0,5.4315534E0,1.0534108E1,5.42852E0,8.808043E0],"tree_param":{"num_deleted":"0","num_feature":"60","num_nodes":"41","size_leaf_vector":"1"}},{"base_weights":[-1.7344914E-3,-4.899023E-1,2.8557983E-1,3.6981544E-1,-7.506777E-1,4.2926848E-1,-4.4076523E-1,5.036513E-2,-2.236377E-2,-9.7674984E-1,-1.491477E-1,-9.111348E-2,6.191488E-1,-4.6365388E-2,1.04495725E-2,-1.1622274E0,-5.5080336E-1,2.8121417E-2,-3.4287836E-2,3.3835676E-2,-5.056546E-1,7.60862E-1,-1.0960623E-2,-3.536805E-2,-6.3120924E-2,3.4069445E-3,-5.2710064E-2,7.700629E-3,-4.1681666E-2,2.8989234E-3,8.718236E-1,2.0298801E-2,5.283436E-2],"categories":[],"categories_nodes":[],"categories_segments":[],"categories_sizes":[],"default_left":[1,0,0,0,1,0,0,0,0,0,0,0,0,0,0,0,1,0,0,0,0,0,0,0,0,0,0,0,0,0,0,0,0],"id":16,"left_children":[1,3,5,7,9,11,13,-1,-1,15,17,19,21,-1,-1,23,25,-1,-1,-1,27,29,-1,-1,-1,-1,-1,-1,-1,-1,31,-1,-1],"loss_changes":[2.2258738E1,1.3459346E1,1.0616068E1,7.927207E0,6.034012E0,8.3478E0,5.56588E0,0E0,0E0,1.9550247E0,5.576219E0,7.759958E0,7.4861813E0,0E0,0E0,1.08867645E-1,3.7688797E0,0E0,0E0,0E0,3.5265603E0,4.0770874E0,0E0,0E0,0E0,0E0,0E0,0E0,0E0,0E0,3.5011215E0,0E0,0E0],"parents":[2147483647,0,0,1,1,2,2,3,3,4,4,5,5,6,6,9,9,10,10,11,11,12,12,15,15,16,16,20,20,21,21,30,30],"right_children":[2,4,6,8,10,12,14,-1,-1,16,18,20,22,-1,-1,24,26,-1,-1,-1,28,30,-1,-1,-1,-1,-1,-1,-1,-1,32,-1,-1],"split_conditions":[2.05E2,6.0518E0,7.143E-1,2.80857E1,3.76572E1,6.5155804E-2,1.95477E1,5.036513E-2,-2.236377E-2,6.187E-1,8.4885E0,5.924E-1,1.1044177E-1,-4.6365388E-2,1.04495725E-2,1.8849449E-1,6.354E-1,2.8121417E-2,-3.4287836E-2,3.3835676E-2,1.734104E1,1.5004413E1,-1.0960623E-2,-3.536805E-2,-6.3120924E-2,3.4069445E-3,-5.2710064E-2,7.700629E-3,-4.1681666E-2,2.8989234E-3,-2.8061306E-1,2.0298801E-2,5.283436E-2],"split_indices":[53,44,29,50,43,13,44,0,0,36,47,36,12,0,0,3,36,0,0,0,38,38,0,0,0,0,0,0,0,0,35,0,0],"split_type":[0,0,0,0,0,0,0,0,0,0,0,0,0,0,0,0,0,0,0,0,0,0,0,0,0,0,0,0,0,0,0,0,0],"sum_hessian":[1.5670149E2,5.7796295E1,9.89052E1,1.3353774E1,4.444252E1,8.291216E1,1.5993035E1,7.3705463E0,5.983228E0,3.1848988E1,1.2593534E1,2.2304655E1,6.060751E1,8.900852E0,7.0921836E0,2.0983282E1,1.08657055E1,5.3934193E0,7.200115E0,7.5983305E0,1.4706325E1,5.1923084E1,8.684424E0,5.2424965E0,1.5740785E1,5.2613564E0,5.604349E0,5.0598383E0,9.646486E0,7.2869015E0,4.463618E1,1.3588899E1,3.1047283E1],"tree_param":{"num_deleted":"0","num_feature":"60","num_nodes":"33","size_leaf_vector":"1"}},{"base_weights":[4.7157996E-4,-4.829257E-1,3.3402544E-1,-1.0692368E0,-2.7191013E-1,4.50412E-1,-2.7807E-1,-6.2092047E-2,-3.4324568E-2,1.677119E-1,-6.9639754E-1,-2.2347597E-2,5.4367316E-1,2.2251137E-2,-3.6656067E-2,5.0072694E-1,-1.8991102E-2,-1.7648613E-1,-1.0622151E0,9.1165406E-1,3.6809176E-1,4.6309225E-2,-8.047147E-3,2.8351296E-2,-4.220624E-2,-3.355698E-2,-6.225384E-2,4.4184047E-1,6.557932E-2,4.9480274E-1,-9.299717E-3,-5.4974994E-3,4.2821698E-2,3.7248064E-2,3.1817385E-3],"categories":[],"categories_nodes":[],"categories_segments":[],"categories_sizes":[],"default_left":[0,0,0,0,0,0,0,0,0,0,0,0,1,0,0,0,0,0,0,0,0,0,0,0,0,0,0,0,0,0,0,0,0,0,0],"id":17,"left_children":[1,3,5,7,9,11,13,-1,-1,15,17,-1,19,-1,-1,21,-1,23,25,27,29,-1,-1,-1,-1,-1,-1,31,-1,33,-1,-1,-1,-1,-1],"loss_changes":[2.5624151E1,7.7370253E0,6.8241787E0,2.594242E-1,9.271106E0,6.887251E0,5.473057E0,0E0,0E0,4.7310576E0,4.5960846E0,0E0,4.340229E0,0E0,0E0,4.629818E0,0E0,6.230384E0,2.0589828E-1,3.685564E0,3.6494775E0,0E0,0E0,0E0,0E0,0E0,0E0,2.826992E0,0E0,4.4300976E0,0E0,0E0,0E0,0E0,0E0],"parents":[2147483647,0,0,1,1,2,2,3,3,4,4,5,5,6,6,9,9,10,10,12,12,15,15,17,17,18,18,19,19,20,20,27,27,29,29],"right_children":[2,4,6,8,10,12,14,-1,-1,16,18,-1,20,-1,-1,22,-1,24,26,28,30,-1,-1,-1,-1,-1,-1,32,-1,34,-1,-1,-1,-1,-1],"split_conditions":[1.5E1,6.203E-1,3.1464174E-1,7.004608E-2,6.852E-1,6.098E-1,4.5741323E-2,-6.2092047E-2,-3.4324568E-2,5.875576E-2,3.031785E-1,-2.2347597E-2,-5.279E2,2.2251137E-2,-3.6656067E-2,6.45594E1,-1.8991102E-2,7.143E-1,2.4788393E-2,6.857943E-2,7.134E-1,4.6309225E-2,-8.047147E-3,2.8351296E-2,-4.220624E-2,-3.355698E-2,-6.225384E-2,2.318339E-1,6.557932E-2,1.04961835E-1,-9.299717E-3,-5.4974994E-3,4.2821698E-2,3.7248064E-2,3.1817385E-3],"split_indices":[30,29,2,13,29,29,10,0,0,11,2,0,34,0,0,51,0,29,21,14,29,0,0,0,0,0,0,3,0,7,0,0,0,0,0],"split_type":[0,0,0,0,0,0,0,0,0,0,0,0,0,0,0,0,0,0,0,0,0,0,0,0,0,0,0,0,0,0,0,0,0,0,0],"sum_hessian":[1.5691985E2,6.388613E1,9.3033714E1,1.5831337E1,4.8054794E1,7.8392044E1,1.4641666E1,9.363967E0,6.46737E0,2.3903719E1,2.4151073E1,7.0230827E0,7.1368965E1,5.663771E0,8.977896E0,1.4916722E1,8.986998E0,1.0586975E1,1.3564099E1,2.1699425E1,4.9669537E1,8.835608E0,6.081115E0,5.0801706E0,5.5068045E0,5.809618E0,7.754481E0,1.0945808E1,1.0753617E1,4.0512047E1,9.157491E0,5.0111594E0,5.934649E0,2.5176922E1,1.5335124E1],"tree_param":{"num_deleted":"0","num_feature":"60","num_nodes":"35","size_leaf_vector":"1"}},{"base_weights":[-3.4402505E-2,-3.091037E-1,5.107087E-1,-1.6744177E-1,-5.5140257E-2,6.819986E-1,-1.5518518E-2,8.64579E-2,-5.5319065E-1,9.938671E-1,1.7872606E-1,2.3392265E-1,-4.6544727E-2,-6.0998708E-2,-3.9260364E-1,1.169588E-2,1.182034E0,3.2425255E-2,-1.9702055E-2,7.2479856E-1,-1.489998E-1,-5.5012524E-1,1.4574594E-2,3.9795928E-2,6.6295706E-2,5.6901395E-2,1.1313179E-2,-4.2878397E-2,5.3034956E-3,6.4685415E-3,-3.7597474E-2],"categories":[],"categories_nodes":[],"categories_segments":[],"categories_sizes":[],"default_left":[0,0,0,0,0,0,0,0,0,0,0,0,0,0,1,0,0,0,0,0,0,0,0,0,0,0,0,0,0,0,0],"id":18,"left_children":[1,3,5,7,-1,9,-1,11,13,15,17,19,-1,-1,21,-1,23,-1,-1,25,27,29,-1,-1,-1,-1,-1,-1,-1,-1,-1],"loss_changes":[2.344917E1,1.1514032E1,7.59482E0,8.810403E0,0E0,6.6887417E0,0E0,8.441963E0,3.33811E0,3.554491E0,5.0872416E0,9.257965E0,0E0,0E0,3.415083E0,0E0,1.2392998E-1,0E0,0E0,4.1722765E0,5.183281E0,3.5115976E0,0E0,0E0,0E0,0E0,0E0,0E0,0E0,0E0,0E0],"parents":[2147483647,0,0,1,1,2,2,3,3,5,5,7,7,8,8,9,9,10,10,11,11,14,14,16,16,19,19,20,20,21,21],"right_children":[2,4,6,8,-1,10,-1,12,14,16,18,20,-1,-1,22,-1,24,-1,-1,26,28,30,-1,-1,-1,-1,-1,-1,-1,-1,-1],"split_conditions":[1.577E3,-1.536E2,3.1045082E-1,5.839416E-2,-5.5140257E-2,3.314345E-2,-1.5518518E-2,4.7486033E-2,9.463722E0,1.79356E1,1.7661098E1,6E0,-4.6544727E-2,-6.0998708E-2,2.82864E1,1.169588E-2,4.6421662E-2,3.2425255E-2,-1.9702055E-2,3.5075E0,3.4197465E-2,3.7076E0,1.4574594E-2,3.9795928E-2,6.6295706E-2,5.6901395E-2,1.1313179E-2,-4.2878397E-2,5.3034956E-3,6.4685415E-3,-3.7597474E-2],"split_indices":[0,34,2,11,0,21,0,21,31,51,38,32,0,0,44,0,10,0,0,47,18,44,0,0,0,0,0,0,0,0,0],"split_type":[0,0,0,0,0,0,0,0,0,0,0,0,0,0,0,0,0,0,0,0,0,0,0,0,0,0,0,0,0,0,0],"sum_hessian":[1.545422E2,1.0304637E2,5.149583E1,8.846744E1,1.4578937E1,4.2747433E1,8.748396E0,5.3819405E1,3.464803E1,2.5790648E1,1.6956787E1,4.7678497E1,6.1409082E0,5.444522E0,2.9203508E1,5.563695E0,2.0226954E1,9.243286E0,7.7135005E0,2.0502775E1,2.7175722E1,2.3896803E1,5.306705E0,7.2643127E0,1.2962641E1,1.0509138E1,9.993637E0,6.568033E0,2.0607689E1,5.5546284E0,1.8342175E1],"tree_param":{"num_deleted":"0","num_feature":"60","num_nodes":"31","size_leaf_vector":"1"}},{"base_weights":[2.3578575E-2,-8.72705E-1,1.7591402E-1,-5.4128557E-3,-5.475716E-2,-6.209116E-2,5.704713E-1,-1.6248415E-1,5.1805045E-2,8.097985E-1,5.5937585E-3,-4.8027124E-2,-4.5050066E-2,9.519173E-1,1.1757959E-2,-2.9084414E-2,2.8356258E-2,5.841562E-1,-1.9590016E-1,5.9672084E-2,2.0368071E-2,4.8930724E-3,5.0177056E-2,-4.418942E-2,-2.2814272E-3],"categories":[],"categories_nodes":[],"categories_segments":[],"categories_sizes":[],"default_left":[0,0,0,0,0,0,0,0,0,0,0,0,0,0,0,0,0,0,0,0,0,0,0,0,0],"id":19,"left_children":[1,3,5,-1,-1,7,9,11,-1,13,15,-1,17,19,-1,-1,-1,21,23,-1,-1,-1,-1,-1,-1],"loss_changes":[2.1866547E1,3.8383598E0,1.2877907E1,0E0,0E0,9.672393E0,6.9650974E0,7.440012E0,0E0,2.7328987E0,5.7214828E0,0E0,6.8206835E0,3.288311E0,0E0,0E0,0E0,2.7395978E0,5.9282703E0,0E0,0E0,0E0,0E0,0E0,0E0],"parents":[2147483647,0,0,1,1,2,2,5,5,6,6,7,7,9,9,10,10,12,12,13,13,17,17,18,18],"right_children":[2,4,6,-1,-1,8,10,12,-1,14,16,-1,18,20,-1,-1,-1,22,24,-1,-1,-1,-1,-1,-1],"split_conditions":[3.36E2,7.6107E0,7.4074075E-2,-5.4128557E-3,-5.475716E-2,1.93E2,6.863E-1,5.1744886E-2,5.1805045E-2,6.511E-1,1.3033562E1,-4.8027124E-2,8.5E-1,5.908E-1,1.1757959E-2,-2.9084414E-2,2.8356258E-2,1.198E3,4.65E0,5.9672084E-2,2.0368071E-2,4.8930724E-3,5.0177056E-2,-4.418942E-2,-2.2814272E-3],"split_indices":[25,45,13,0,0,58,29,19,0,36,31,0,54,5,0,0,0,0,54,0,0,0,0,0,0],"split_type":[0,0,0,0,0,0,0,0,0,0,0,0,0,0,0,0,0,0,0,0,0,0,0,0,0],"sum_hessian":[1.5802812E2,2.2270163E1,1.3575797E2,5.3546505E0,1.6915512E1,8.520386E1,5.055411E1,7.884789E1,6.3559628E0,3.5204918E1,1.5349193E1,9.193218E0,6.965467E1,2.769812E1,7.5067997E0,7.4850245E0,7.864168E0,1.2914589E1,5.6740086E1,1.836236E1,9.33576E0,6.551356E0,6.3632336E0,9.29764E0,4.7442444E1],"tree_param":{"num_deleted":"0","num_feature":"60","num_nodes":"25","size_leaf_vector":"1"}},{"base_weights":[5.68601E-3,-9.038957E-1,1.5338102E-1,-1.6630674E-2,-5.5898737E-2,3.612182E-1,-3.03659E-1,-3.6616664E-2,4.549689E-1,-9.431684E-1,-1.0384214E-2,-6.264011E-2,6.0295E-1,-6.4503044E-2,-2.9059866E-2,4.1244846E-2,-2.72203E-1,-6.46728E-1,3.2120064E-2,8.448864E-1,3.0410814E-1,2.1885172E-1,-7.08956E-1,-1.9315714E-3,-5.6767005E-2,3.0039063E-2,6.633373E-2,-1.8770065E-2,3.0429453E-2,-1.4466489E-2,3.0956477E-2,-4.9662706E-2,-1.0586146E-2],"categories":[],"categories_nodes":[],"categories_segments":[],"categories_sizes":[],"default_left":[0,0,0,0,0,0,0,0,0,0,0,0,1,0,0,0,0,0,0,0,0,0,0,0,0,0,0,0,0,0,0,0,0],"id":20,"left_children":[1,3,5,-1,-1,7,9,-1,11,13,15,17,19,-1,-1,-1,21,23,-1,25,27,29,31,-1,-1,-1,-1,-1,-1,-1,-1,-1,-1],"loss_changes":[2.1770317E1,2.3968506E0,1.3349602E1,0E0,0E0,1.0202786E1,8.263776E0,0E0,6.876608E0,9.9036217E-1,7.059762E0,8.963109E0,4.7699623E0,0E0,0E0,0E0,5.419954E0,3.4771457E0,0E0,3.6555176E0,6.987404E0,2.6851404E0,1.6596808E0,0E0,0E0,0E0,0E0,0E0,0E0,0E0,0E0,0E0,0E0],"parents":[2147483647,0,0,1,1,2,2,5,5,6,6,8,8,9,9,10,10,11,11,12,12,16,16,17,17,19,19,20,20,21,21,22,22],"right_children":[2,4,6,-1,-1,8,10,-1,12,14,16,18,20,-1,-1,-1,22,24,-1,26,28,30,32,-1,-1,-1,-1,-1,-1,-1,-1,-1,-1],"split_conditions":[3.36E2,8.3626E0,5.839416E-2,-1.6630674E-2,-5.5898737E-2,1.14E2,2.26E2,-3.6616664E-2,4.8582997E-2,3.8961038E-2,2.0144404E-1,6.392294E-2,2.80205E1,-6.4503044E-2,-2.9059866E-2,4.1244846E-2,3E-2,2.67E2,3.2120064E-2,7.0393376E-2,6.753554E-2,6.633081E-2,6.1598953E-2,-1.9315714E-3,-5.6767005E-2,3.0039063E-2,6.633373E-2,-1.8770065E-2,3.0429453E-2,-1.4466489E-2,3.0956477E-2,-4.9662706E-2,-1.0586146E-2],"split_indices":[25,45,11,0,0,24,24,0,16,17,27,19,50,0,0,0,21,24,0,20,8,9,20,0,0,0,0,0,0,0,0,0,0],"split_type":[0,0,0,0,0,0,0,0,0,0,0,0,0,0,0,0,0,0,0,0,0,0,0,0,0,0,0,0,0,0,0,0,0],"sum_hessian":[1.6002103E2,2.1638714E1,1.3838232E2,6.5945306E0,1.5044183E1,9.526884E1,4.311348E1,6.984689E0,8.828415E1,1.2858498E1,3.0254982E1,1.975649E1,6.852766E1,5.256744E0,7.6017537E0,6.7069955E0,2.3547987E1,1.0850314E1,8.9061775E0,3.6859627E1,3.1668032E1,1.1319755E1,1.2228232E1,5.314847E0,5.535467E0,2.5955744E1,1.0903883E1,9.727119E0,2.1940912E1,5.109744E0,6.21001E0,7.145282E0,5.0829506E0],"tree_param":{"num_deleted":"0","num_feature":"60","num_nodes":"33","size_leaf_vector":"1"}},{"base_weights":[1.1601805E-2,-6.551661E-1,2.3415032E-1,-3.802613E-1,-5.5066366E-2,-5.043888E-1,3.4980538E-1,2.3152864E-2,-6.636608E-1,-4.9709696E-2,1.0018755E-2,-3.6735874E-2,4.350772E-1,3.681286E-3,-9.252288E-1,7.9483185E-3,6.585824E-1,-6.1941225E-2,-2.5449296E-2,5.003013E-1,-4.4015297E-1,2.4299592E-1,8.369068E-1,3.9076194E-2,-4.401847E-3,-6.7117894E-3,-4.992145E-2,2.8493965E-2,-2.7896408E-2,5.5300284E-2,1.5504469E-2],"categories":[],"categories_nodes":[],"categories_segments":[],"categories_sizes":[],"default_left":[0,0,0,0,0,0,0,0,0,0,0,0,0,0,0,1,0,0,0,0,0,0,0,0,0,0,0,0,0,0,0],"id":21,"left_children":[1,3,5,7,-1,9,11,-1,13,-1,-1,-1,15,-1,17,19,21,-1,-1,23,25,27,29,-1,-1,-1,-1,-1,-1,-1,-1],"loss_changes":[2.3007067E1,4.3406467E0,1.0102454E1,6.4107246E0,0E0,5.771975E0,9.666019E0,0E0,3.833579E0,0E0,0E0,0E0,8.999599E0,0E0,1.260334E0,7.5923195E0,4.3847866E0,0E0,0E0,2.780476E0,2.9444864E0,5.5536304E0,5.7405815E0,0E0,0E0,0E0,0E0,0E0,0E0,0E0,0E0],"parents":[2147483647,0,0,1,1,2,2,3,3,5,5,6,6,8,8,12,12,14,14,15,15,16,16,19,19,20,20,21,21,22,22],"right_children":[2,4,6,8,-1,10,12,-1,14,-1,-1,-1,16,-1,18,20,22,-1,-1,24,26,28,30,-1,-1,-1,-1,-1,-1,-1,-1],"split_conditions":[1.2E1,4.2845628E-1,3.1728666E-2,5.2200615E-2,-5.5066366E-2,5.1871657E-2,3.746792E-1,2.3152864E-2,6.380121E-2,-4.9709696E-2,1.0018755E-2,-3.6735874E-2,2.24E2,3.681286E-3,6.446922E-2,1.7021276E1,6.292046E-2,-6.1941225E-2,-2.5449296E-2,6.122449E0,2.1512386E-1,4E0,8.367347E-2,3.9076194E-2,-4.401847E-3,-6.7117894E-3,-4.992145E-2,2.8493965E-2,-2.7896408E-2,5.5300284E-2,1.5504469E-2],"split_indices":[30,6,18,11,0,10,28,0,13,0,0,0,24,0,9,38,9,0,0,33,4,57,15,0,0,0,0,0,0,0,0],"split_type":[0,0,0,0,0,0,0,0,0,0,0,0,0,0,0,0,0,0,0,0,0,0,0,0,0,0,0,0,0,0,0],"sum_hessian":[1.5301265E2,3.7804455E1,1.1520819E2,2.4537704E1,1.3266749E1,1.514372E1,1.0006447E2,6.0124316E0,1.8525272E1,8.692102E0,6.4516163E0,6.738987E0,9.3325485E1,5.039332E0,1.348594E1,3.2414818E1,6.0910667E1,6.5642514E0,6.9216886E0,1.5389287E1,1.7025528E1,1.8998106E1,4.1912563E1,1.019011E1,5.1991777E0,1.1799973E1,5.2255564E0,1.3696563E1,5.301543E0,2.7014248E1,1.4898315E1],"tree_param":{"num_deleted":"0","num_feature":"60","num_nodes":"31","size_leaf_vector":"1"}},{"base_weights":[-4.894118E-2,-2.82292E-1,4.4805083E-1,-9.451567E-2,-6.6377056E-1,-2.3261026E-2,5.649707E-1,5.412495E-1,-2.207456E-1,-5.4092266E-2,-3.3851215E-1,-5.91441E-3,7.4597603E-1,5.161308E-2,-4.1960683E-3,6.412472E-2,-6.339337E-1,1.2120162E-2,-7.5490814E-1,1.014897E0,1.9157486E-1,-6.224441E-1,4.3479124E-1,-9.1342396E-1,3.7158236E-3,-5.1716942E-2,-1.4668822E-2,2.620821E-2,1.1209137E0,3.0373702E-2,-1.5568867E-2,-9.1557624E-4,-5.2865323E-2,-3.6859536E-3,3.6739346E-2,-2.5768438E-2,-6.873143E-2,3.887005E-2,6.387182E-2],"categories":[],"categories_nodes":[],"categories_segments":[],"categories_sizes":[],"default_left":[0,0,0,0,0,0,0,0,0,0,0,0,0,0,0,0,0,0,0,0,0,0,0,0,0,0,0,0,0,0,0,0,0,0,0,0,0,0,0],"id":22,"left_children":[1,3,5,7,9,-1,11,13,15,-1,17,-1,19,-1,-1,21,23,-1,25,27,29,31,33,35,-1,-1,-1,-1,37,-1,-1,-1,-1,-1,-1,-1,-1,-1,-1],"loss_changes":[1.8352852E1,7.642024E0,5.665927E0,5.997619E0,4.4358435E0,0E0,5.6917887E0,3.9001763E0,7.3174305E0,0E0,5.3393946E0,0E0,5.166378E0,0E0,0E0,9.814275E0,5.080117E0,0E0,1.3292413E0,6.600151E-1,2.9036975E0,3.5428405E0,3.8591104E0,2.6385517E0,0E0,0E0,0E0,0E0,1.9960403E-2,0E0,0E0,0E0,0E0,0E0,0E0,0E0,0E0,0E0,0E0],"parents":[2147483647,0,0,1,1,2,2,3,3,4,4,6,6,7,7,8,8,10,10,12,12,15,15,16,16,18,18,19,19,20,20,21,21,22,22,23,23,28,28],"right_children":[2,4,6,8,10,-1,12,14,16,-1,18,-1,20,-1,-1,22,24,-1,26,28,30,32,34,36,-1,-1,-1,-1,38,-1,-1,-1,-1,-1,-1,-1,-1,-1,-1],"split_conditions":[1.577E3,-2.205E2,7.2E1,1.97415E1,9.104938E-2,-2.3261026E-2,2.1E2,7E0,2.77273E1,-5.4092266E-2,7.9271294E-2,-5.91441E-3,3.375E-2,5.161308E-2,-4.1960683E-3,3.4741785E-2,1.4319809E1,1.2120162E-2,6.26186E-2,6.7567565E-2,7.538995E-2,1.77078E1,1.8942732E-1,-2.6405326E-1,3.7158236E-3,-5.1716942E-2,-1.4668822E-2,2.620821E-2,8.8986434E-2,3.0373702E-2,-1.5568867E-2,-9.1557624E-4,-5.2865323E-2,-3.6859536E-3,3.6739346E-2,-2.5768438E-2,-6.873143E-2,3.887005E-2,6.387182E-2],"split_indices":[0,34,23,46,26,0,24,32,50,0,8,0,21,0,0,18,31,0,9,13,15,45,27,35,0,0,0,0,7,0,0,0,0,0,0,0,0,0,0],"split_type":[0,0,0,0,0,0,0,0,0,0,0,0,0,0,0,0,0,0,0,0,0,0,0,0,0,0,0,0,0,0,0,0,0,0,0,0,0,0,0],"sum_hessian":[1.5615979E2,1.0655936E2,4.9600426E1,7.22455E1,3.431386E1,5.2912254E0,4.43092E1,1.1423334E1,6.0822163E1,1.3996799E1,2.031706E1,9.35237E0,3.495683E1,6.033459E0,5.3898745E0,3.6501328E1,2.4320837E1,8.657211E0,1.165985E1,2.2979597E1,1.1977234E1,1.2559212E1,2.3942116E1,1.7231312E1,7.0895243E0,6.489645E0,5.170205E0,5.1385083E0,1.784109E1,6.442232E0,5.5350013E0,5.6927147E0,6.866497E0,9.163579E0,1.4778537E1,1.0385373E1,6.8459387E0,7.45239E0,1.0388699E1],"tree_param":{"num_deleted":"0","num_feature":"60","num_nodes":"39","size_leaf_vector":"1"}},{"base_weights":[1.0990338E-2,2.3734227E-1,-5.815274E-1,3.3197936E-1,-4.5956323E-1,-3.7914854E-1,-5.144232E-2,5.241426E-1,-1.3069415E-1,-4.0995307E-2,5.957085E-3,-7.846886E-2,-8.2070047E-1,7.643613E-1,2.5071234E-1,2.8917828E-1,-7.0852715E-1,-3.8191225E-2,3.0806223E-1,-5.3984012E-2,-2.0549797E-2,1.1274609E-3,9.332464E-1,6.3589984E-1,-2.8267545E-1,3.279384E-2,-1.2390684E-2,-5.9824777E-3,-5.67894E-2,-5.985506E-3,3.7899453E-2,1.5572782E-2,5.4183584E-2,-2.802761E-3,4.389786E-2,1.1672719E-2,-3.515418E-2],"categories":[],"categories_nodes":[],"categories_segments":[],"categories_sizes":[],"default_left":[1,0,0,0,0,0,0,0,0,0,0,0,0,0,0,0,1,0,0,0,0,0,0,0,0,0,0,0,0,0,0,0,0,0,0,0,0],"id":23,"left_children":[1,3,5,7,9,11,-1,13,15,-1,-1,17,19,21,23,25,27,-1,29,-1,-1,-1,31,33,35,-1,-1,-1,-1,-1,-1,-1,-1,-1,-1,-1,-1],"loss_changes":[2.0724075E1,7.524433E0,3.4771109E0,8.869694E0,2.9719234E0,4.050705E0,0E0,4.4154816E0,7.4468822E0,0E0,0E0,5.4129214E0,8.7731934E-1,4.595598E0,7.225045E0,3.7065768E0,3.0976439E0,0E0,2.6330895E0,0E0,0E0,0E0,2.4677105E0,3.435853E0,3.4344692E0,0E0,0E0,0E0,0E0,0E0,0E0,0E0,0E0,0E0,0E0,0E0,0E0],"parents":[2147483647,0,0,1,1,2,2,3,3,4,4,5,5,7,7,8,8,11,11,12,12,13,13,14,14,15,15,16,16,18,18,22,22,23,23,24,24],"right_children":[2,4,6,8,10,12,-1,14,16,-1,-1,18,20,22,24,26,28,-1,30,-1,-1,-1,32,34,36,-1,-1,-1,-1,-1,-1,-1,-1,-1,-1,-1,-1],"split_conditions":[-2.437E2,5.986696E-2,2.86947E1,1.06179774E-1,5.632184E-2,6.852E-1,-5.144232E-2,3.2371294E-2,3E0,-4.0995307E-2,5.957085E-3,6.203E-1,6.2321328E-2,5.1915947E-2,1.7734554E1,1.21554E1,-2.556615E-1,-3.8191225E-2,6.140351E-2,-5.3984012E-2,-2.0549797E-2,1.1274609E-3,1.59601E1,6.745696E-2,2.53147E1,3.279384E-2,-1.2390684E-2,-5.9824777E-3,-5.67894E-2,-5.985506E-3,3.7899453E-2,1.5572782E-2,5.4183584E-2,-2.802761E-3,4.389786E-2,1.1672719E-2,-3.515418E-2],"split_indices":[34,17,50,12,19,29,0,21,57,0,0,29,19,26,38,45,35,0,19,0,0,0,38,8,51,0,0,0,0,0,0,0,0,0,0,0,0],"split_type":[0,0,0,0,0,0,0,0,0,0,0,0,0,0,0,0,0,0,0,0,0,0,0,0,0,0,0,0,0,0,0,0,0,0,0,0,0],"sum_hessian":[1.5249263E2,1.1077436E2,4.171827E1,9.799117E1,1.2783188E1,2.9995237E1,1.1723033E1,6.914159E1,2.8849588E1,7.62101E0,5.162178E0,1.8544718E1,1.1450519E1,3.58503E1,3.3291286E1,1.69979E1,1.1851687E1,6.3353868E0,1.2209331E1,6.013831E0,5.436688E0,6.858496E0,2.8991804E1,1.9219604E1,1.4071682E1,9.968957E0,7.0289435E0,5.5215626E0,6.3301244E0,6.6349864E0,5.5743446E0,6.2456403E0,2.2746164E1,5.1800694E0,1.40395355E1,6.516344E0,7.555338E0],"tree_param":{"num_deleted":"0","num_feature":"60","num_nodes":"37","size_leaf_vector":"1"}},{"base_weights":[-4.3903098E-2,-4.3385854E-1,2.1863425E-1,-5.3633012E-2,-2.5562334E-1,7.5981176E-1,9.800926E-2,3.6280926E-2,-5.6367147E-1,3.516261E-3,5.527925E-2,2.1634531E-1,-4.0088713E-2,5.2038145E-1,-3.6445275E-1,-8.866453E-1,-1.2681068E-1,-2.5573228E-2,3.3494407E-1,1.5473204E-3,4.2875875E-2,-4.515735E-2,2.9570563E-4,-2.260582E-2,-5.997048E-2,-4.03553E-2,3.0072419E-2,-2.0426897E-2,4.2216837E-1,-9.130723E-3,2.630728E-2],"categories":[],"categories_nodes":[],"categories_segments":[],"categories_sizes":[],"default_left":[0,0,1,0,0,0,0,0,0,0,0,0,0,0,0,0,0,0,0,0,0,0,0,0,0,0,0,0,0,0,0],"id":24,"left_children":[1,3,5,-1,7,9,11,13,15,-1,-1,17,-1,19,21,23,25,-1,27,-1,-1,-1,-1,-1,-1,-1,-1,-1,29,-1,-1],"loss_changes":[1.5590844E1,6.698019E0,5.874068E0,0E0,4.443719E0,3.8466148E0,8.229841E0,5.2717085E0,3.2729988E0,0E0,0E0,6.0112314E0,0E0,1.9991088E0,2.9822168E0,1.3098841E0,6.1163883E0,0E0,3.9843807E0,0E0,0E0,0E0,0E0,0E0,0E0,0E0,0E0,0E0,3.4352312E0,0E0,0E0],"parents":[2147483647,0,0,1,1,2,2,4,4,5,5,6,6,7,7,8,8,11,11,13,13,14,14,15,15,16,16,18,18,28,28],"right_children":[2,4,6,-1,8,10,12,14,16,-1,-1,18,-1,20,22,24,26,-1,28,-1,-1,-1,-1,-1,-1,-1,-1,-1,30,-1,-1],"split_conditions":[1.5E1,1.14E2,5.849E-1,-5.3633012E-2,3.0385852E-1,8.440797E-2,7.213E-1,4.237428E-1,6.9767445E-2,3.516261E-3,5.527925E-2,2.0177384E-1,-4.0088713E-2,6.506024E-2,5.6752495E-2,8.4416E0,6.4354174E-2,-2.5573228E-2,6.098E-1,1.5473204E-3,4.2875875E-2,-4.515735E-2,2.9570563E-4,-2.260582E-2,-5.997048E-2,-4.03553E-2,3.0072419E-2,-2.0426897E-2,5.1744886E-2,-9.130723E-3,2.630728E-2],"split_indices":[30,24,36,0,2,12,29,6,20,0,0,3,0,14,19,45,15,0,29,0,0,0,0,0,0,0,0,0,19,0,0],"split_type":[0,0,0,0,0,0,0,0,0,0,0,0,0,0,0,0,0,0,0,0,0,0,0,0,0,0,0,0,0,0,0],"sum_hessian":[1.5036073E2,6.0236656E1,9.012407E1,1.2045806E1,4.8190853E1,1.5460848E1,7.466322E1,2.519678E1,2.2994074E1,5.565798E0,9.89505E0,6.665639E1,8.006832E0,1.1276181E1,1.3920598E1,1.2628305E1,1.03657675E1,8.875735E0,5.7780655E1,5.044563E0,6.231618E0,5.0854096E0,8.835189E0,6.308854E0,6.319452E0,5.303393E0,5.0623746E0,5.6801834E0,5.210047E1,7.5323434E0,4.4568127E1],"tree_param":{"num_deleted":"0","num_feature":"60","num_nodes":"31","size_leaf_vector":"1"}},{"base_weights":[1.5193726E-2,1.959632E-1,-5.209902E-1,4.328946E-2,5.8703506E-1,1.625403E-1,-7.882803E-1,1.3245872E-1,-4.6651892E-2,8.1570494E-1,-1.3521737E-2,-1.341291E-2,2.6363567E-2,-9.7802126E-1,3.2933217E-3,4.5086276E-3,4.3807585E-2,6.055606E-2,3.602539E-1,-5.539844E-2,-2.273175E-2,2.3475643E-1,-3.514026E-1,4.601672E-2,-6.013542E-3,3.945264E-3,4.6754267E-2,-5.714641E-2,-5.8172564E-3],"categories":[],"categories_nodes":[],"categories_segments":[],"categories_sizes":[],"default_left":[1,0,0,0,0,0,1,1,0,0,0,0,0,1,0,0,0,0,0,0,0,0,1,0,0,0,0,0,0],"id":25,"left_children":[1,3,5,7,9,11,13,15,-1,17,-1,-1,-1,19,-1,21,-1,-1,23,-1,-1,25,27,-1,-1,-1,-1,-1,-1],"loss_changes":[1.49884E1,6.8758845E0,7.2530107E0,7.4549546E0,6.568634E0,1.9942452E0,4.6356144E0,7.4220123E0,0E0,4.2115307E0,0E0,0E0,0E0,1.0702305E0,0E0,5.621322E0,0E0,0E0,3.7216263E0,0E0,0E0,4.4710407E0,4.8812304E0,0E0,0E0,0E0,0E0,0E0,0E0],"parents":[2147483647,0,0,1,1,2,2,3,3,4,4,5,5,6,6,7,7,9,9,13,13,15,15,18,18,21,21,22,22],"right_children":[2,4,6,8,10,12,14,16,-1,18,-1,-1,-1,20,-1,22,-1,-1,24,-1,-1,26,28,-1,-1,-1,-1,-1,-1],"split_conditions":[-2.295E2,7.721797E-2,6.8423E0,2.4755839E-1,6.98E-1,1.3762486E-1,6.4056E0,1.21E2,-4.6651892E-2,5.9717E0,-1.3521737E-2,-1.341291E-2,2.6363567E-2,5.192E-1,3.2933217E-3,2.923E-1,4.3807585E-2,6.055606E-2,5.0957717E-2,-5.539844E-2,-2.273175E-2,3.38825E1,3E1,4.601672E-2,-6.013542E-3,3.945264E-3,4.6754267E-2,-5.714641E-2,-5.8172564E-3],"split_indices":[34,13,41,3,29,26,42,58,0,42,0,0,0,55,0,55,0,0,17,0,0,46,58,0,0,0,0,0,0],"split_type":[0,0,0,0,0,0,0,0,0,0,0,0,0,0,0,0,0,0,0,0,0,0,0,0,0,0,0,0,0],"sum_hessian":[1.5258472E2,1.1458721E2,3.7997505E1,8.321207E1,3.1375145E1,1.0791845E1,2.720566E1,7.7040215E1,6.171855E0,2.4808046E1,6.567098E0,5.0690684E0,5.722777E0,2.214199E1,5.063669E0,6.658972E1,1.0450494E1,1.23911E1,1.2416946E1,1.6843197E1,5.2987933E0,4.0639454E1,2.5950262E1,5.3111787E0,7.105768E0,3.415195E1,6.487504E0,5.057489E0,2.0892775E1],"tree_param":{"num_deleted":"0","num_feature":"60","num_nodes":"29","size_leaf_vector":"1"}},{"base_weights":[-1.2219094E-2,-4.9529442E-1,1.895554E-1,-1.7279443E-1,-8.8942283E-1,4.1046895E-2,6.1717325E-1,2.1892695E-2,-4.9966493E-1,-1.0445107E0,-2.3410654E-2,-2.1211451E-1,3.413709E-1,8.4426874E-1,-1.5559385E-2,-4.76923E-2,-1.9333726E-3,-3.2757428E-2,-6.1022665E-2,2.8733218E-1,-4.8900798E-1,1.2103365E-1,7.928248E-1,4.6956716E-3,1.078299E0,-1.9969096E-2,3.191725E-2,-7.428537E-1,1.827295E-2,5.553143E-1,-2.1496964E-1,1.9412663E-2,5.2965906E-2,6.468659E-2,3.4890328E-2,-7.91631E-3,-5.0416984E-2,4.415835E-2,6.6209654E-3,-4.0732235E-2,9.227605E-3],"categories":[],"categories_nodes":[],"categories_segments":[],"categories_sizes":[],"default_left":[0,0,0,0,0,1,0,0,1,0,0,0,0,0,0,0,0,0,0,0,1,0,0,0,0,0,0,0,0,0,0,0,0,0,0,0,0,0,0,0,0],"id":26,"left_children":[1,3,5,7,9,11,13,-1,15,17,-1,19,21,23,-1,-1,-1,-1,-1,25,27,29,31,-1,33,-1,-1,35,-1,37,39,-1,-1,-1,-1,-1,-1,-1,-1,-1,-1],"loss_changes":[1.4469587E1,5.4046364E0,6.627143E0,5.267018E0,7.807436E-1,6.065413E0,5.940625E0,0E0,3.5100493E0,1.18037224E-1,0E0,6.140638E0,3.5284872E0,3.74586E0,0E0,0E0,0E0,0E0,0E0,4.1368585E0,6.406019E0,3.864588E0,8.577652E-1,0E0,4.5825958E-1,0E0,0E0,3.275257E0,0E0,1.4740114E0,3.789942E0,0E0,0E0,0E0,0E0,0E0,0E0,0E0,0E0,0E0,0E0],"parents":[2147483647,0,0,1,1,2,2,3,3,4,4,5,5,6,6,8,8,9,9,11,11,12,12,13,13,19,19,20,20,21,21,22,22,24,24,27,27,29,29,30,30],"right_children":[2,4,6,8,10,12,14,-1,16,18,-1,20,22,24,-1,-1,-1,-1,-1,26,28,30,32,-1,34,-1,-1,36,-1,38,40,-1,-1,-1,-1,-1,-1,-1,-1,-1,-1],"split_conditions":[9.95E2,5.839416E-2,7.760532E-2,1.129E-1,2.4078947E-1,1.99527E1,6.98E-1,2.1892695E-2,4.2344E0,-2.5E-1,-2.3410654E-2,1.977E-1,5.2E-1,2.8625954E-2,-1.5559385E-2,-4.76923E-2,-1.9333726E-3,-3.2757428E-2,-6.1022665E-2,6.657356E-2,9.071E-1,3.2659408E-2,2.0394737E-1,4.6956716E-3,2.99926E1,-1.9969096E-2,3.191725E-2,2.19736E1,1.827295E-2,5.4039873E-2,5.2150354E-2,1.9412663E-2,5.2965906E-2,6.468659E-2,3.4890328E-2,-7.91631E-3,-5.0416984E-2,4.415835E-2,6.6209654E-3,-4.0732235E-2,9.227605E-3],"split_indices":[0,11,13,48,26,44,29,0,42,35,0,55,52,22,0,0,0,0,0,14,56,21,4,0,46,0,0,46,0,11,11,0,0,0,0,0,0,0,0,0,0],"split_type":[0,0,0,0,0,0,0,0,0,0,0,0,0,0,0,0,0,0,0,0,0,0,0,0,0,0,0,0,0,0,0,0,0,0,0,0,0,0,0,0,0],"sum_hessian":[1.4648502E2,4.2729687E1,1.03755325E2,2.42914E1,1.8438288E1,7.7823715E1,2.5931608E1,8.350935E0,1.5940465E1,1.2394786E1,6.0435023E0,4.2386917E1,3.54368E1,2.0907742E1,5.023866E0,7.491069E0,8.449396E0,5.327854E0,7.066932E0,1.510449E1,2.7282427E1,2.466625E1,1.0770549E1,5.303805E0,1.5603937E1,5.062508E0,1.0041983E1,2.113442E1,6.148007E0,1.0474877E1,1.4191372E1,5.252883E0,5.5176663E0,8.430489E0,7.1734486E0,7.0995393E0,1.4034882E1,5.287398E0,5.1874795E0,5.2588625E0,8.932509E0],"tree_param":{"num_deleted":"0","num_feature":"60","num_nodes":"41","size_leaf_vector":"1"}},{"base_weights":[-2.90401E-2,-1.0443316E0,7.330061E-2,-6.1814178E-2,-3.3858903E-2,5.2555555E-1,-1.5699148E-1,-1.2011046E-2,6.6337186E-1,2.0753874E-1,-3.3952272E-1,-4.4728443E-3,7.8913474E-1,5.518391E-1,-3.7088987E-1,1.4768253E-2,-4.50633E-1,4.0758494E-1,1.0249391E0,-3.0099212E-3,9.336469E-1,-4.2056333E-2,1.1492697E-2,-6.878051E-1,-5.9065457E-2,-8.029173E-3,4.8051838E-2,2.4880787E-2,5.919639E-2,1.7466458E-2,6.559738E-2,-2.4649007E-2,-6.2624596E-2,1.5463772E-2,-3.1754903E-2],"categories":[],"categories_nodes":[],"categories_segments":[],"categories_sizes":[],"default_left":[0,0,1,0,0,0,0,0,0,0,0,0,0,0,0,0,1,1,0,0,0,0,0,0,0,0,0,0,0,0,0,0,0,0,0],"id":27,"left_children":[1,3,5,-1,-1,7,9,-1,11,13,15,-1,17,19,21,-1,23,25,27,-1,29,-1,-1,31,33,-1,-1,-1,-1,-1,-1,-1,-1,-1,-1],"loss_changes":[1.5620652E1,1.3285923E-1,1.4333875E1,0E0,0E0,5.056035E0,6.1544533E0,0E0,3.8186226E0,6.404108E0,4.4578605E0,0E0,2.6432858E0,4.7101164E0,3.643492E0,0E0,4.841666E0,4.762776E0,1.1184006E0,0E0,2.266158E0,0E0,0E0,2.9741907E0,4.6362133E0,0E0,0E0,0E0,0E0,0E0,0E0,0E0,0E0,0E0,0E0],"parents":[2147483647,0,0,1,1,2,2,5,5,6,6,8,8,9,9,10,10,12,12,13,13,14,14,16,16,17,17,18,18,20,20,23,23,24,24],"right_children":[2,4,6,-1,-1,8,10,-1,12,14,16,-1,18,20,22,-1,24,26,28,-1,30,-1,-1,32,34,-1,-1,-1,-1,-1,-1,-1,-1,-1,-1],"split_conditions":[5.814E-1,6.711606E-2,-4.267E2,-6.1814178E-2,-3.3858903E-2,1.87E2,5.2607078E-2,-1.2011046E-2,3.3557046E-2,2.82961E1,5.605E-1,-4.4728443E-3,5.3418804E-2,6.039E-1,7.0273004E-2,1.4768253E-2,2.07513E1,3.28237E1,5.464481E-2,-3.0099212E-3,3.76E-2,-4.2056333E-2,1.1492697E-2,2.93078E1,2.64793E1,-8.029173E-3,4.8051838E-2,2.4880787E-2,5.919639E-2,1.7466458E-2,6.559738E-2,-2.4649007E-2,-6.2624596E-2,1.5463772E-2,-3.1754903E-2],"split_indices":[29,13,34,0,0,24,11,0,18,50,47,0,16,36,8,0,44,46,19,0,18,0,0,46,45,0,0,0,0,0,0,0,0,0,0],"split_type":[0,0,0,0,0,0,0,0,0,0,0,0,0,0,0,0,0,0,0,0,0,0,0,0,0,0,0,0,0,0,0,0,0,0,0],"sum_hessian":[1.4859824E2,1.2764181E1,1.3583406E2,6.827484E0,5.936697E0,4.5397964E1,9.04361E1,6.810786E0,3.858718E1,3.0128984E1,6.0307114E1,5.564746E0,3.3022434E1,1.891569E1,1.1213294E1,8.735257E0,5.1571857E1,1.3655409E1,1.9367025E1,7.590484E0,1.1325207E1,6.0654073E0,5.1478863E0,3.1646845E1,1.9925013E1,7.088388E0,6.5670204E0,5.4432125E0,1.3923812E1,5.206594E0,6.1186123E0,2.4921564E1,6.725281E0,1.2435984E1,7.4890285E0],"tree_param":{"num_deleted":"0","num_feature":"60","num_nodes":"35","size_leaf_vector":"1"}},{"base_weights":[-1.0348597E-2,-9.453227E-1,9.830046E-2,-5.68234E-2,-2.3723694E-2,2.9480693E-1,-2.7440032E-1,4.071031E-1,-2.5977133E-2,7.938723E-2,-6.297326E-1,9.8072134E-2,7.354756E-1,4.48542E-2,-2.352395E-1,-5.4647205E-3,-8.7251467E-1,-2.1831381E-1,4.6094176E-1,5.7260018E-2,4.9762842E-1,2.3060089E-2,-5.968032E-1,-5.7635225E-2,-2.2392115E-2,1.1755273E-2,-4.3084133E-2,5.5086906E-3,5.578498E-2,8.306042E-3,4.7201682E-2,-4.4307888E-2,-1.0594027E-2],"categories":[],"categories_nodes":[],"categories_segments":[],"categories_sizes":[],"default_left":[0,0,0,0,0,0,0,0,0,0,0,0,0,0,0,0,0,0,0,0,0,0,0,0,0,0,0,0,0,0,0,0,0],"id":28,"left_children":[1,3,5,-1,-1,7,9,11,-1,13,15,17,19,-1,21,-1,23,25,27,-1,29,-1,31,-1,-1,-1,-1,-1,-1,-1,-1,-1,-1],"loss_changes":[1.46145525E1,8.086748E-1,9.526803E0,0E0,0E0,7.978346E0,5.712551E0,7.5589256E0,0E0,6.2463183E0,2.7582998E0,4.6808057E0,2.9681072E0,0E0,4.7405486E0,0E0,1.2992249E0,6.6176996E0,4.2186446E0,0E0,3.5042157E0,0E0,1.1609087E0,0E0,0E0,0E0,0E0,0E0,0E0,0E0,0E0,0E0,0E0],"parents":[2147483647,0,0,1,1,2,2,5,5,6,6,7,7,9,9,10,10,11,11,12,12,14,14,16,16,17,17,18,18,20,20,22,22],"right_children":[2,4,6,-1,-1,8,10,12,-1,14,16,18,20,-1,22,-1,24,26,28,-1,30,-1,32,-1,-1,-1,-1,-1,-1,-1,-1,-1,-1],"split_conditions":[1.9E1,6.4074874E-2,3.041599E-1,-5.68234E-2,-2.3723694E-2,2.4755839E-1,6.752E-1,6.166E-1,-2.5977133E-2,5.269923E-2,5.548387E-2,1.68E2,1.99E-1,4.48542E-2,7.1411E0,-5.4647205E-3,9.7785205E-2,5.704918E-2,6.972265E-2,5.7260018E-2,2.269E1,2.3060089E-2,3.6692224E-2,-5.7635225E-2,-2.2392115E-2,1.1755273E-2,-4.3084133E-2,5.5086906E-3,5.578498E-2,8.306042E-3,4.7201682E-2,-4.4307888E-2,-1.0594027E-2],"split_indices":[23,19,2,0,0,3,29,36,0,11,19,23,55,0,44,0,7,11,19,0,54,0,18,0,0,0,0,0,0,0,0,0,0],"split_type":[0,0,0,0,0,0,0,0,0,0,0,0,0,0,0,0,0,0,0,0,0,0,0,0,0,0,0,0,0,0,0,0,0],"sum_hessian":[1.4195186E2,1.397656E1,1.27975296E2,8.935469E0,5.0410905E0,8.393144E1,4.404385E1,7.419964E1,9.731803E0,2.2459034E1,2.1584816E1,3.8894623E1,3.5305016E1,5.726063E0,1.6732971E1,7.3274827E0,1.4257334E1,2.0990969E1,1.7903654E1,1.1566045E1,2.3738972E1,5.6241674E0,1.1108804E1,7.557029E0,6.7003045E0,1.2685403E1,8.305567E0,1.2418865E1,5.4847884E0,1.4410005E1,9.328967E0,5.5982842E0,5.5105195E0],"tree_param":{"num_deleted":"0","num_feature":"60","num_nodes":"33","size_leaf_vector":"1"}},{"base_weights":[1.3503849E-3,-9.627015E-1,9.922993E-2,-2.2790825E-2,-6.1099906E-2,1.7650354E-3,5.175021E-2,1.6972004E-1,-3.0010438E-1,3.0231243E-1,-4.7265851E-1,-8.424591E-1,3.4318328E-2,-8.2233116E-2,5.7012314E-1,-4.5252573E-2,-1.2181343E-3,-5.5057436E-2,-2.2607395E-2,3.8437586E-2,-3.441306E-1,2.523823E-2,-2.3672186E-2,5.0662972E-2,1.1007512E-2,-5.0837766E-2,-9.928109E-4],"categories":[],"categories_nodes":[],"categories_segments":[],"categories_sizes":[],"default_left":[0,0,1,0,0,0,0,0,0,0,0,0,0,0,0,0,0,0,0,0,0,0,0,0,0,0,0],"id":29,"left_children":[1,3,5,-1,-1,7,-1,9,11,13,15,17,19,21,23,-1,-1,-1,-1,-1,25,-1,-1,-1,-1,-1,-1],"loss_changes":[1.3776343E1,1.2116661E0,1.2085321E1,0E0,0E0,6.1870875E0,0E0,6.820643E0,7.941741E0,6.8024044E0,2.6537092E0,1.186224E0,8.032396E0,6.623722E0,5.793256E0,0E0,0E0,0E0,0E0,0E0,4.15329E0,0E0,0E0,0E0,0E0,0E0,0E0],"parents":[2147483647,0,0,1,1,2,2,5,5,7,7,8,8,9,9,10,10,11,11,12,12,13,13,14,14,20,20],"right_children":[2,4,6,-1,-1,8,-1,10,12,14,16,18,20,22,24,-1,-1,-1,-1,-1,26,-1,-1,-1,-1,-1,-1],"split_conditions":[5.836E-1,4.308943E-2,1.05259E1,-2.2790825E-2,-6.1099906E-2,5.839416E-2,5.175021E-2,2.61125E1,9.95E2,5.3014107E-2,3.7490986E-2,1.7320575E-1,3.3797216E-2,9.3237035E-2,6.551724E-1,-4.5252573E-2,-1.2181343E-3,-5.5057436E-2,-2.2607395E-2,3.8437586E-2,3.6420394E-2,2.523823E-2,-2.3672186E-2,5.0662972E-2,1.1007512E-2,-5.0837766E-2,-9.928109E-4],"split_indices":[29,22,42,0,0,11,0,45,0,16,18,26,22,12,28,0,0,0,0,0,22,0,0,0,0,0,0],"split_type":[0,0,0,0,0,0,0,0,0,0,0,0,0,0,0,0,0,0,0,0,0,0,0,0,0,0,0],"sum_hessian":[1.4398383E2,1.2456784E1,1.3152704E2,5.14906E0,7.3077245E0,1.2002755E2,1.1499497E1,7.740082E1,4.2626728E1,6.459686E1,1.2803958E1,1.567936E1,2.6947367E1,2.6803312E1,3.779355E1,5.998947E0,6.805011E0,8.334337E0,7.345023E0,8.813061E0,1.8134306E1,1.0603249E1,1.6200064E1,1.58407345E1,2.1952814E1,5.2041473E0,1.2930159E1],"tree_param":{"num_deleted":"0","num_feature":"60","num_nodes":"27","size_leaf_vector":"1"}},{"base_weights":[-5.7388883E-2,-5.3002304E-1,1.0397067E-1,-4.894619E-2,-2.7449977E-1,-5.063833E-2,5.939806E-1,-6.3079023E-1,1.0535599E-1,2.0523752E-1,-3.5732642E-1,-4.282938E-3,8.058769E-1,-5.212162E-2,-1.1147729E-2,2.9315993E-2,-2.0753352E-2,-3.9211858E-2,3.6785904E-1,-5.293344E-1,2.4498506E-2,1.0759493E0,5.0879945E-3,7.7724403E-1,3.0034932E-3,-6.9086766E-1,3.1695645E-3,3.433837E-2,6.2782034E-2,9.525594E-3,4.8750456E-2,1.5470861E-2,-3.6950152E-2,-5.4861207E-2,-2.0912532E-2],"categories":[],"categories_nodes":[],"categories_segments":[],"categories_sizes":[],"default_left":[0,0,0,0,0,0,0,0,0,0,0,0,0,0,0,0,0,0,0,0,0,0,0,0,0,0,0,0,0,0,0,0,0,0,0],"id":30,"left_children":[1,3,5,-1,7,9,11,13,15,17,19,-1,21,-1,-1,-1,-1,-1,23,25,-1,27,-1,29,31,33,-1,-1,-1,-1,-1,-1,-1,-1,-1],"loss_changes":[1.1171086E1,4.0052814E0,8.32546E0,0E0,3.4681396E0,6.677324E0,3.8624191E0,1.9689727E0,3.5027914E0,7.772927E0,5.8910804E0,0E0,3.7272625E0,0E0,0E0,0E0,0E0,0E0,6.0661926E0,3.1652365E0,0E0,1.5017319E-1,0E0,2.0353947E0,5.3412046E0,2.3885317E0,0E0,0E0,0E0,0E0,0E0,0E0,0E0,0E0,0E0],"parents":[2147483647,0,0,1,1,2,2,4,4,5,5,6,6,7,7,8,8,9,9,10,10,12,12,18,18,19,19,21,21,23,23,24,24,25,25],"right_children":[2,4,6,-1,8,10,12,14,16,18,20,-1,22,-1,-1,-1,-1,-1,24,26,-1,28,-1,30,32,34,-1,-1,-1,-1,-1,-1,-1,-1,-1],"split_conditions":[4.83E2,1.85E2,7.830092E-2,-4.894619E-2,-2.122E2,2.78748E1,3.673938E-2,2.9844207E-1,5.825864E-2,2.9651593E-2,3E1,-4.282938E-3,8.425276E-2,-5.212162E-2,-1.1147729E-2,2.9315993E-2,-2.0753352E-2,-3.9211858E-2,3.283369E-2,6.727829E-2,2.4498506E-2,2.7272728E-1,5.0879945E-3,6.943499E-2,2.37596E1,2.04E2,3.1695645E-3,3.433837E-2,6.2782034E-2,9.525594E-3,4.8750456E-2,1.5470861E-2,-3.6950152E-2,-5.4861207E-2,-2.0912532E-2],"split_indices":[25,24,13,0,34,50,18,2,11,18,30,0,15,0,0,0,0,0,21,19,0,1,0,15,41,24,0,0,0,0,0,0,0,0,0],"split_type":[0,0,0,0,0,0,0,0,0,0,0,0,0,0,0,0,0,0,0,0,0,0,0,0,0,0,0,0,0,0,0,0,0,0,0],"sum_hessian":[1.447565E2,3.62609E1,1.08495605E2,1.2126366E1,2.4134531E1,8.3155014E1,2.5340591E1,1.2112683E1,1.2021848E1,4.5513233E1,3.7641785E1,6.164436E0,1.9176157E1,5.253819E0,6.858865E0,6.1819763E0,5.839872E0,5.884764E0,3.9628468E1,3.160166E1,6.0401244E0,1.3478309E1,5.697848E0,1.8142008E1,2.148646E1,2.4703684E1,6.8979764E0,5.7805405E0,7.697768E0,5.0683837E0,1.3073624E1,1.5619389E1,5.867072E0,8.704372E0,1.59993105E1],"tree_param":{"num_deleted":"0","num_feature":"60","num_nodes":"35","size_leaf_vector":"1"}},{"base_weights":[-5.9832532E-2,-2.1984094E-1,4.9747044E-1,-8.283313E-1,-1.0607749E-1,2.3428002E-1,5.798602E-2,-2.0968387E-2,-5.5515416E-2,-1.9254673E-1,4.0382784E-2,-2.4926623E-2,4.4696915E-1,-8.322181E-2,-7.061897E-1,4.9679738E-2,3.37217E-2,1.9309886E-1,-3.935157E-1,-5.2750655E-2,-2.975861E-3,3.919768E-2,-3.143917E-2,1.8412149E-2,-2.0018347E-2,-3.295371E-2,5.6533207E-4],"categories":[],"categories_nodes":[],"categories_segments":[],"categories_sizes":[],"default_left":[0,0,0,0,0,0,0,0,0,0,0,0,0,0,0,0,0,0,0,0,0,0,0,0,0,0,0],"id":31,"left_children":[1,3,5,7,9,11,-1,-1,-1,13,-1,-1,15,17,19,-1,21,23,25,-1,-1,-1,-1,-1,-1,-1,-1],"loss_changes":[1.3216924E1,7.8656116E0,5.4967012E0,1.6043854E0,7.894083E0,4.1094093E0,0E0,0E0,0E0,5.011061E0,0E0,0E0,4.4513626E0,6.5557485E0,3.4810905E0,0E0,6.6270976E0,4.372284E0,3.869833E0,0E0,0E0,0E0,0E0,0E0,0E0,0E0,0E0],"parents":[2147483647,0,0,1,1,2,2,3,3,4,4,5,5,9,9,12,12,13,13,14,14,16,16,17,17,18,18],"right_children":[2,4,6,8,10,12,-1,-1,-1,14,-1,-1,16,18,20,-1,22,24,26,-1,-1,-1,-1,-1,-1,-1,-1],"split_conditions":[1.814E3,3.36E2,5.8892816E-2,2.73562E1,8.45152E-2,3.660436E-2,5.798602E-2,-2.0968387E-2,-5.5515416E-2,7.7820164E-1,4.0382784E-2,-2.4926623E-2,2.76628E1,5.6851313E-2,7.292616E-2,4.9679738E-2,2.053E-1,2.39376E1,1.6304348E-1,-5.2750655E-2,-2.975861E-3,3.919768E-2,-3.143917E-2,1.8412149E-2,-2.0018347E-2,-3.295371E-2,5.6533207E-4],"split_indices":[0,25,16,50,13,18,0,0,0,28,0,0,50,11,13,0,55,45,26,0,0,0,0,0,0,0,0],"split_type":[0,0,0,0,0,0,0,0,0,0,0,0,0,0,0,0,0,0,0,0,0,0,0,0,0,0,0],"sum_hessian":[1.4598994E2,1.1389487E2,3.2095066E1,1.6950422E1,9.694445E1,2.3936157E1,8.15891E0,7.9326277E0,9.017795E0,8.928447E1,7.6599755E0,5.0820823E0,1.8854074E1,7.4574E1,1.4710475E1,7.5125046E0,1.134157E1,3.964622E1,3.4927776E1,9.145712E0,5.5647626E0,5.232679E0,6.1088905E0,3.0905012E1,8.74121E0,2.0712542E1,1.4215233E1],"tree_param":{"num_deleted":"0","num_feature":"60","num_nodes":"27","size_leaf_vector":"1"}},{"base_weights":[-6.8092775E-3,-5.2223885E-1,1.5135549E-1,2.7651787E-3,-7.579773E-1,-2.5932777E-1,3.4252843E-1,-1.0810575E-2,-9.8906547E-1,-7.059945E-1,4.6044104E-2,4.3740478E-1,-2.568068E-1,-6.0457956E-2,-3.6245022E-2,-5.035531E-2,-1.0458768E-2,4.1187513E-1,-2.7312746E-2,-8.051701E-3,5.3157115E-1,1.2044902E-2,-3.5618063E-2,-4.3135984E-3,4.7015738E-2,-2.9099993E-2,6.7824787E-1,-2.2164574E-2,2.4400288E-2,-1.3253752E-3,3.9002E-2],"categories":[],"categories_nodes":[],"categories_segments":[],"categories_sizes":[],"default_left":[0,0,0,0,0,0,0,0,0,0,1,1,0,0,0,0,0,0,0,0,0,0,0,0,0,0,0,0,0,0,0],"id":32,"left_children":[1,3,5,-1,7,9,11,-1,13,15,17,19,21,-1,-1,-1,-1,23,-1,-1,25,-1,-1,-1,-1,27,29,-1,-1,-1,-1],"loss_changes":[1.204967E1,4.7667294E0,8.9711895E0,0E0,2.8800077E0,5.011775E0,4.526554E0,0E0,1.1439514E-1,2.0160174E0,5.1264567E0,3.883214E0,2.719962E0,0E0,0E0,0E0,0E0,3.912273E0,0E0,0E0,4.8273487E0,0E0,0E0,0E0,0E0,3.0180807E0,3.3478317E0,0E0,0E0,0E0,0E0],"parents":[2147483647,0,0,1,1,2,2,4,4,5,5,6,6,8,8,9,9,10,10,11,11,12,12,17,17,20,20,25,25,26,26],"right_children":[2,4,6,-1,8,10,12,-1,14,16,18,20,22,-1,-1,-1,-1,24,-1,-1,26,-1,-1,-1,-1,28,30,-1,-1,-1,-1],"split_conditions":[1.2E1,4E0,6.442417E-2,2.7651787E-3,2.7863776E-2,6.0899653E-2,7.143E-1,-1.0810575E-2,4.6428572E-2,4.0852576E-2,-2.4223848E-1,2.865E-1,2.85585E1,-6.0457956E-2,-3.6245022E-2,-5.035531E-2,-1.0458768E-2,6.639428E-2,-2.7312746E-2,-8.051701E-3,3.3402923E-2,1.2044902E-2,-3.5618063E-2,-4.3135984E-3,4.7015738E-2,6.712E-1,2.6721764E-1,-2.2164574E-2,2.4400288E-2,-1.3253752E-3,3.9002E-2],"split_indices":[30,58,13,0,21,19,29,0,17,21,35,56,50,0,0,0,0,19,0,0,18,0,0,0,0,29,2,0,0,0,0],"split_type":[0,0,0,0,0,0,0,0,0,0,0,0,0,0,0,0,0,0,0,0,0,0,0,0,0,0,0,0,0,0,0],"sum_hessian":[1.4583777E2,3.3703255E1,1.12134514E2,9.991121E0,2.3712135E1,3.550504E1,7.662947E1,7.6688404E0,1.6043293E1,1.3884418E1,2.1620623E1,6.6389946E1,1.0239521E1,6.8002563E0,9.243038E0,8.005403E0,5.879015E0,1.3553795E1,8.066829E0,8.92981E0,5.746014E1,5.118561E0,5.12096E0,7.4075866E0,6.146209E0,1.2081246E1,4.5378895E1,6.7874103E0,5.2938366E0,5.820487E0,3.9558407E1],"tree_param":{"num_deleted":"0","num_feature":"60","num_nodes":"31","size_leaf_vector":"1"}},{"base_weights":[1.9992106E-3,-7.66454E-1,1.1494547E-1,-2.947509E-3,-1.0269037E0,-4.9846884E-2,7.2358286E-1,-3.2312464E-2,-5.968098E-2,1.7447433E-1,-4.7101167E-1,2.948978E-4,8.995327E-1,-1.075287E-1,4.0536618E-1,-6.650877E-1,3.3031546E-3,1.0787698E0,1.8146522E-2,1.8643735E-1,-3.276093E-2,5.5158013E-1,-2.0212036E-2,-9.3622345E-1,-1.0373188E-2,6.2007096E-2,3.3863254E-2,-8.298421E-3,3.6584597E-2,3.5480272E-3,3.904937E-2,-6.112802E-2,-1.4687753E-2],"categories":[],"categories_nodes":[],"categories_segments":[],"categories_sizes":[],"default_left":[0,0,0,0,0,0,0,0,0,0,0,0,0,0,0,0,0,1,0,1,0,0,0,0,0,0,0,0,0,0,0,0,0],"id":33,"left_children":[1,3,5,-1,7,9,11,-1,-1,13,15,-1,17,19,21,23,-1,25,-1,27,-1,29,-1,31,-1,-1,-1,-1,-1,-1,-1,-1,-1],"loss_changes":[1.2436264E1,3.3229208E0,1.2564234E1,0E0,7.646656E-2,9.457064E0,3.3635397E0,0E0,0E0,4.306815E0,3.6665716E0,0E0,1.6685371E0,4.9949718E0,4.5093093E0,2.9846582E0,0E0,1.6753578E-1,0E0,4.0553684E0,0E0,3.3728695E0,0E0,2.5481014E0,0E0,0E0,0E0,0E0,0E0,0E0,0E0,0E0,0E0],"parents":[2147483647,0,0,1,1,2,2,4,4,5,5,6,6,9,9,10,10,12,12,13,13,14,14,15,15,17,17,19,19,21,21,23,23],"right_children":[2,4,6,-1,8,10,12,-1,-1,14,16,-1,18,20,22,24,-1,26,-1,28,-1,30,-1,32,-1,-1,-1,-1,-1,-1,-1,-1,-1],"split_conditions":[6.007E-1,4.8E-1,1.814E3,-2.947509E-3,6.9787234E-2,6.939E-1,4.920914E-2,-3.2312464E-2,-5.968098E-2,6.900518E-2,7.1484685E-2,2.948978E-4,1.0297667E-1,5.957074E-2,2.2834E1,3.9232053E-2,3.3031546E-3,1.021E-1,1.8146522E-2,3.586E-1,-3.276093E-2,9.8662205E-2,-2.0212036E-2,1.8683447E-1,-1.0373188E-2,6.2007096E-2,3.3863254E-2,-8.298421E-3,3.6584597E-2,3.5480272E-3,3.904937E-2,-6.112802E-2,-1.4687753E-2],"split_indices":[29,56,0,0,14,29,16,0,0,14,9,0,12,16,45,22,0,48,0,55,0,26,0,26,0,0,0,0,0,0,0,0,0],"split_type":[0,0,0,0,0,0,0,0,0,0,0,0,0,0,0,0,0,0,0,0,0,0,0,0,0,0,0,0,0,0,0,0,0],"sum_hessian":[1.4126993E2,1.7361485E1,1.2390845E2,5.0014744E0,1.236001E1,9.823013E1,2.5678318E1,5.24978E0,7.11023E0,6.447508E1,3.375505E1,5.2593555E0,2.0418962E1,2.9265516E1,3.5209564E1,2.4620054E1,9.134995E0,1.4548924E1,5.870037E0,1.9473135E1,9.792382E0,3.0093433E1,5.1161304E0,1.4803408E1,9.816647E0,8.887958E0,5.660967E0,1.225085E1,7.222285E0,1.0146122E1,1.9947311E1,9.615178E0,5.1882296E0],"tree_param":{"num_deleted":"0","num_feature":"60","num_nodes":"33","size_leaf_vector":"1"}},{"base_weights":[-4.2282466E-2,-8.0348414E-1,6.744256E-2,-5.7808768E-2,-5.492968E-3,7.429375E-1,-7.169979E-2,4.7167128E-1,6.0629766E-2,4.49925E-2,-5.2986395E-1,-1.966897E-2,5.320852E-2,-3.8111158E-2,1.16006754E-1,-9.1923493E-1,3.0907074E-3,2.8910583E-1,-1.8524902E-1,-6.1922062E-2,-2.6712498E-2,2.5785146E-2,-5.023053E-4,3.662115E-2,-2.0414816E-2],"categories":[],"categories_nodes":[],"categories_segments":[],"categories_sizes":[],"default_left":[0,0,1,0,0,1,0,1,0,0,0,0,0,0,0,0,0,0,0,0,0,0,0,0,0],"id":34,"left_children":[1,3,5,-1,-1,7,9,11,-1,13,15,-1,-1,-1,17,19,-1,21,23,-1,-1,-1,-1,-1,-1],"loss_changes":[1.1793713E1,4.2239265E0,1.1686329E1,0E0,0E0,2.1325693E0,5.5595818E0,8.154269E0,0E0,4.8717847E0,4.917071E0,0E0,0E0,0E0,4.0983524E0,9.096832E-1,0E0,3.37087E0,6.2173123E0,0E0,0E0,0E0,0E0,0E0,0E0],"parents":[2147483647,0,0,1,1,2,2,5,5,6,6,7,7,9,9,10,10,14,14,15,15,17,17,18,18],"right_children":[2,4,6,-1,-1,8,10,12,-1,14,16,-1,-1,-1,18,20,-1,22,24,-1,-1,-1,-1,-1,-1],"split_conditions":[6.007E-1,7.004608E-2,-5.261E2,-5.7808768E-2,-5.492968E-3,9.6379E0,7.143E-1,3.5352E1,6.0629766E-2,1.29E2,3.992467E-2,-1.966897E-2,5.320852E-2,-3.8111158E-2,3.039742E-1,1.9823788E-1,3.0907074E-3,3.4351144E-2,1.82093E1,-6.1922062E-2,-2.6712498E-2,2.5785146E-2,-5.023053E-4,3.662115E-2,-2.0414816E-2],"split_indices":[29,13,34,0,0,49,29,46,0,24,22,0,0,0,2,3,0,21,46,0,0,0,0,0,0],"split_type":[0,0,0,0,0,0,0,0,0,0,0,0,0,0,0,0,0,0,0,0,0,0,0,0,0],"sum_hessian":[1.3955461E2,1.6785423E1,1.2276919E2,1.0685333E1,6.100091E0,2.022814E1,1.02541046E2,1.4092718E1,6.135422E0,8.244459E1,2.0096458E1,5.8653517E0,8.227366E0,5.879477E0,7.656512E1,1.1786441E1,8.310017E0,4.8650986E1,2.7914127E1,5.231742E0,6.554699E0,2.7270592E1,2.1380394E1,5.01157E0,2.2902557E1],"tree_param":{"num_deleted":"0","num_feature":"60","num_nodes":"25","size_leaf_vector":"1"}},{"base_weights":[1.1425802E-2,-9.1326404E-1,1.0269709E-1,-5.576545E-2,-2.8924618E-2,-3.338961E-2,4.99466E-1,1.3078201E-1,-3.6285868E-1,-5.364174E-3,6.4933044E-1,3.1800652E-1,-4.8665994E-1,2.9560117E-2,-6.2841463E-1,4.0817758E-1,5.1721614E-2,2.8593294E-2,8.446028E-1,-4.354574E-2,8.949726E-3,-8.960562E-1,-2.0214756E-1,-2.8499123E-3,3.433113E-2,-2.9288635E-2,8.997618E-3,1.2492693E-2,5.477939E-2,-5.515055E-2,-2.4463896E-2,-2.387028E-2,5.372078E-3],"categories":[],"categories_nodes":[],"categories_segments":[],"categories_sizes":[],"default_left":[0,1,0,0,0,0,0,0,0,0,0,0,0,0,1,0,0,0,0,0,0,0,0,0,0,0,0,0,0,0,0,0,0],"id":35,"left_children":[1,3,5,-1,-1,7,9,11,13,-1,15,17,19,-1,21,23,-1,25,27,-1,-1,29,31,-1,-1,-1,-1,-1,-1,-1,-1,-1,-1],"loss_changes":[1.1668908E1,1.9503117E-1,6.805331E0,0E0,0E0,5.1618934E0,2.995103E0,7.5351114E0,8.405821E0,0E0,1.9869337E0,7.534137E0,4.056533E0,0E0,2.7042809E0,2.3193202E0,0E0,3.1777453E0,2.346652E0,0E0,0E0,7.4373055E-1,9.9262065E-1,0E0,0E0,0E0,0E0,0E0,0E0,0E0,0E0,0E0,0E0],"parents":[2147483647,0,0,1,1,2,2,5,5,6,6,7,7,8,8,10,10,11,11,12,12,14,14,15,15,17,17,18,18,21,21,22,22],"right_children":[2,4,6,-1,-1,8,10,12,14,-1,16,18,20,-1,22,24,-1,26,28,-1,-1,30,32,-1,-1,-1,-1,-1,-1,-1,-1,-1,-1],"split_conditions":[1.14E2,2.87681E1,2.4E1,-5.576545E-2,-2.8924618E-2,2.82961E1,6.1317183E-2,2.35266E1,2.3361E0,-5.364174E-3,5.6331363E-2,6.4056E0,9.81E-1,2.9560117E-2,4.1731E0,1.1640894E-1,5.1721614E-2,1.86E2,1.908046E-1,-4.354574E-2,8.949726E-3,6.54113E-2,9.1228E0,-2.8499123E-3,3.433113E-2,-2.9288635E-2,8.997618E-3,1.2492693E-2,5.477939E-2,-5.515055E-2,-2.4463896E-2,-2.387028E-2,5.372078E-3],"split_indices":[24,51,30,0,0,50,13,45,44,0,16,42,56,0,42,27,0,24,4,0,0,20,49,0,0,0,0,0,0,0,0,0,0],"split_type":[0,0,0,0,0,0,0,0,0,0,0,0,0,0,0,0,0,0,0,0,0,0,0,0,0,0,0,0,0,0,0,0,0],"sum_hessian":[1.3614981E2,1.1422263E1,1.2472754E2,5.6691856E0,5.753077E0,9.355516E1,3.1172384E1,6.2843723E1,3.0711435E1,6.2306705E0,2.4941713E1,4.859378E1,1.424994E1,6.4200144E0,2.4291422E1,1.6604074E1,8.337639E0,3.203945E1,1.6554333E1,8.839122E0,5.4108186E0,1.4245168E1,1.0046254E1,6.5151067E0,1.0088968E1,5.7658396E0,2.6273611E1,5.5049553E0,1.10493765E1,8.307181E0,5.9379854E0,5.031049E0,5.0152054E0],"tree_param":{"num_deleted":"0","num_feature":"60","num_nodes":"33","size_leaf_vector":"1"}},{"base_weights":[1.135255E-2,-1.6522825E-1,4.143989E-1,-7.334129E-1,-6.346044E-2,-1.651311E-1,6.3076174E-1,-5.126637E-2,-9.645961E-3,4.6134498E-2,-5.643062E-1,-4.4868447E-2,3.418235E-2,7.920136E-1,-5.9571536E-3,2.2116934E-1,-4.76803E-1,-1.19585255E-2,-3.9770853E-2,1.048135E0,6.0175783E-3,-3.198303E-2,3.5555613E-1,-8.045724E-1,4.635281E-3,5.9775513E-2,2.7784446E-2,-6.892276E-3,2.6374144E-2,-5.132981E-2,-2.2048965E-2],"categories":[],"categories_nodes":[],"categories_segments":[],"categories_sizes":[],"default_left":[0,0,0,0,0,0,0,0,0,0,0,0,0,0,0,0,0,0,0,0,0,0,0,0,0,0,0,0,0,0,0],"id":36,"left_children":[1,3,5,7,9,11,13,-1,-1,15,17,-1,-1,19,-1,21,23,-1,-1,25,-1,-1,27,29,-1,-1,-1,-1,-1,-1,-1],"loss_changes":[9.856405E0,5.5244627E0,5.3933682E0,2.0963674E0,4.571239E0,8.233037E0,3.833643E0,0E0,0E0,6.4086866E0,9.3253565E-1,0E0,0E0,4.2744637E0,0E0,6.2750897E0,3.3573596E0,0E0,0E0,6.702652E-1,0E0,0E0,3.9630418E0,4.5670652E-1,0E0,0E0,0E0,0E0,0E0,0E0,0E0],"parents":[2147483647,0,0,1,1,2,2,3,3,4,4,5,5,6,6,9,9,10,10,13,13,15,15,16,16,19,19,22,22,23,23],"right_children":[2,4,6,8,10,12,14,-1,-1,16,18,-1,-1,20,-1,22,24,-1,-1,26,-1,-1,28,30,-1,-1,-1,-1,-1,-1,-1],"split_conditions":[1.59E3,6.167E-1,6.1895553E-2,7.018562E-2,6.61157E-2,3.992467E-2,3.8272817E-2,-5.126637E-2,-9.645961E-3,2.87472E1,2.34498E1,-4.4868447E-2,3.418235E-2,8.590885E-2,-5.9571536E-3,4.7957372E-2,6.934594E-2,-1.19585255E-2,-3.9770853E-2,6.07606E1,6.0175783E-3,-3.198303E-2,1.0658017E1,1.118E3,4.635281E-3,5.9775513E-2,2.7784446E-2,-6.892276E-3,2.6374144E-2,-5.132981E-2,-2.2048965E-2],"split_indices":[0,29,9,13,11,22,21,0,0,50,46,0,0,15,0,19,9,0,0,43,0,0,31,0,0,0,0,0,0,0,0],"split_type":[0,0,0,0,0,0,0,0,0,0,0,0,0,0,0,0,0,0,0,0,0,0,0,0,0,0,0,0,0,0,0],"sum_hessian":[1.3652847E2,9.5345985E1,4.118249E1,1.3540523E1,8.1805466E1,1.1259797E1,2.9922693E1,8.209595E0,5.330928E0,6.786348E1,1.3941984E1,6.0141573E0,5.24564E0,2.4580914E1,5.3417807E0,5.1277287E1,1.6586195E1,6.63811E0,7.3038735E0,1.7389395E1,7.191518E0,6.416407E0,4.486088E1,1.02654E1,6.3207955E0,1.2285109E1,5.104286E0,1.1643673E1,3.3217205E1,5.2413545E0,5.024045E0],"tree_param":{"num_deleted":"0","num_feature":"60","num_nodes":"31","size_leaf_vector":"1"}},{"base_weights":[-2.2039913E-2,1.4314227E-1,-3.911201E-1,-1.20953806E-1,4.0826514E-1,-5.204899E-1,1.7322976E-2,-4.6456154E-2,1.166221E-2,-1.8776143E-2,5.171302E-1,2.0820051E-2,-7.8023916E-1,5.343581E-1,-1.6966018E-1,8.4516835E-1,1.677346E-1,-2.6440183E-2,2.2912333E-2,-1.5568681E-2,-5.279541E-2,4.5878705E-2,2.3957794E-3,-4.0590888E-1,2.6428935E-1,1.3246118E-2,1.0865526E0,-2.1795544E-1,4.1805007E-2,7.3408387E-3,-3.2757338E-2,-1.0651144E-2,3.1743865E-2,3.454606E-2,6.3812956E-2,-4.2076852E-2,1.6867965E-2],"categories":[],"categories_nodes":[],"categories_segments":[],"categories_sizes":[],"default_left":[0,1,1,0,0,0,0,0,0,0,0,0,0,0,0,0,0,0,0,0,0,0,0,0,1,0,0,0,0,0,0,0,0,0,0,0,0],"id":37,"left_children":[1,3,5,7,9,11,-1,-1,13,-1,15,17,19,21,23,25,27,-1,-1,-1,-1,-1,-1,29,31,-1,33,35,-1,-1,-1,-1,-1,-1,-1,-1,-1],"loss_changes":[8.418852E0,6.735725E0,4.2527843E0,5.220828E0,4.2799377E0,5.177841E0,0E0,0E0,4.142035E0,0E0,4.7252846E0,3.3383257E0,2.8808565E0,2.0532753E0,3.438779E0,2.7450428E0,5.8045483E0,0E0,0E0,0E0,0E0,0E0,0E0,3.0491297E0,2.268618E0,0E0,2.4175262E-1,5.3475914E0,0E0,0E0,0E0,0E0,0E0,0E0,0E0,0E0,0E0],"parents":[2147483647,0,0,1,1,2,2,3,3,4,4,5,5,8,8,10,10,11,11,12,12,13,13,14,14,15,15,16,16,23,23,24,24,26,26,27,27],"right_children":[2,4,6,8,10,12,-1,-1,14,-1,16,18,20,22,24,26,28,-1,-1,-1,-1,-1,-1,30,32,-1,34,36,-1,-1,-1,-1,-1,-1,-1,-1,-1],"split_conditions":[5.875576E-2,3.76572E1,2.96122E1,1.14E2,2.6278408E-2,1.275E0,1.7322976E-2,-4.6456154E-2,1.29228E1,-1.8776143E-2,2.224E1,1.63E2,2.63598E1,5.1590714E0,9.85023E-2,1.2558411E-1,9.836E-1,-2.6440183E-2,2.2912333E-2,-1.5568681E-2,-5.279541E-2,4.5878705E-2,2.3957794E-3,2.19736E1,2.43613E1,1.3246118E-2,2.1682465E-1,3.3E-1,4.1805007E-2,7.3408387E-3,-3.2757338E-2,-1.0651144E-2,3.1743865E-2,3.454606E-2,6.3812956E-2,-4.2076852E-2,1.6867965E-2],"split_indices":[11,43,44,24,22,47,0,0,43,0,54,23,50,33,7,27,56,0,0,0,0,0,0,46,46,0,3,52,0,0,0,0,0,0,0,0,0],"split_type":[0,0,0,0,0,0,0,0,0,0,0,0,0,0,0,0,0,0,0,0,0,0,0,0,0,0,0,0,0,0,0,0,0,0,0,0,0],"sum_hessian":[1.3617381E2,9.449476E1,4.167905E1,4.7611473E1,4.688329E1,3.5709938E1,5.9691124E0,5.8648205E0,4.174665E1,5.4190083E0,4.1464283E1,1.1877477E1,2.3832462E1,1.025054E1,3.149611E1,2.0653923E1,2.0810358E1,5.1711116E0,6.706365E0,9.6126E0,1.4219862E1,5.2378798E0,5.01266E0,2.0435392E1,1.10607195E1,6.684074E0,1.396985E1,1.362294E1,7.187418E0,6.478718E0,1.3956675E1,5.020089E0,6.0406303E0,6.032069E0,7.9377804E0,6.1742473E0,7.4486933E0],"tree_param":{"num_deleted":"0","num_feature":"60","num_nodes":"37","size_leaf_vector":"1"}},{"base_weights":[-2.0420019E-2,-7.9425424E-1,8.260616E-2,-5.5637892E-2,-9.038054E-3,-5.4551702E-2,5.495747E-1,-4.6451783E-1,5.3258043E-2,8.207278E-1,-6.0094427E-3,-8.836449E-2,-4.2415984E-2,-2.0449945E-1,3.434672E-1,2.0463051E-2,5.4216743E-2,-2.2759324E-2,1.3920887E-2,3.5388988E-1,-4.1567183E-1,5.546646E-1,-2.5174985E-2,1.4126034E-3,3.131491E-2,-3.135799E-3,-3.3541605E-2,1.8124592E-2,5.9720438E-2],"categories":[],"categories_nodes":[],"categories_segments":[],"categories_sizes":[],"default_left":[0,0,0,0,0,0,0,0,0,1,0,0,0,0,0,0,0,0,0,0,0,1,0,0,0,0,0,0,0],"id":38,"left_children":[1,3,5,-1,-1,7,9,11,13,15,-1,17,-1,19,21,-1,-1,-1,-1,23,25,27,-1,-1,-1,-1,-1,-1,-1],"loss_changes":[1.1272387E1,3.044468E0,8.033307E0,0E0,0E0,4.333965E0,5.2672253E0,2.8706565E0,5.9119473E0,1.7674198E0,0E0,1.6633153E0,0E0,5.0979652E0,6.9170036E0,0E0,0E0,0E0,0E0,1.0522308E0,2.7430243E0,3.2770758E0,0E0,0E0,0E0,0E0,0E0,0E0,0E0],"parents":[2147483647,0,0,1,1,2,2,5,5,6,6,7,7,8,8,9,9,11,11,13,13,14,14,19,19,20,20,21,21],"right_children":[2,4,6,-1,-1,8,10,12,14,16,-1,18,-1,20,22,-1,-1,-1,-1,24,26,28,-1,-1,-1,-1,-1,-1,-1],"split_conditions":[6.007E-1,6.982872E-2,1.805E3,-5.5637892E-2,-9.038054E-3,5.639615E-2,1.0297667E-1,6.394E-1,6.140351E-2,2.1964E1,-6.0094427E-3,3.9955753E-1,-4.2415984E-2,2.14672E1,6.122449E-2,2.0463051E-2,5.4216743E-2,-2.2759324E-2,1.3920887E-2,5.7831325E-2,6.121648E-1,7.9014E0,-2.5174985E-2,1.4126034E-3,3.131491E-2,-3.135799E-3,-3.3541605E-2,1.8124592E-2,5.9720438E-2],"split_indices":[29,13,0,0,0,9,12,56,19,51,0,6,0,46,16,0,0,0,0,16,28,47,0,0,0,0,0,0,0],"split_type":[0,0,0,0,0,0,0,0,0,0,0,0,0,0,0,0,0,0,0,0,0,0,0,0,0,0,0,0,0],"sum_hessian":[1.3956758E2,1.5610108E1,1.2395747E2,9.739766E0,5.8703423E0,9.649745E1,2.7460026E1,1.9403488E1,7.709396E1,1.9386158E1,8.073868E0,1.0420694E1,8.982793E0,4.098622E1,3.610774E1,8.566762E0,1.0819396E1,5.089558E0,5.331136E0,1.1061412E1,2.9924809E1,2.9177284E1,6.9304547E0,5.5411797E0,5.5202327E0,1.3078914E1,1.6845896E1,2.3642063E1,5.5352216E0],"tree_param":{"num_deleted":"0","num_feature":"60","num_nodes":"29","size_leaf_vector":"1"}},{"base_weights":[-5.616999E-2,-6.592137E-1,3.266079E-2,-3.2938305E-1,-5.4294348E-2,2.1165796E-1,-2.8245577E-1,9.770337E-3,-3.8293894E-2,-4.195887E-1,3.269462E-1,2.1626073E-1,-7.1512294E-1,-4.092797E-2,3.4902908E-3,5.635501E-1,5.7923716E-2,3.620633E-2,-1.4466551E-1,-3.6126423E-1,-1.0309384E0,5.0453227E-2,8.4074247E-1,-3.2257263E-2,2.5546616E-1,2.3206783E-2,-2.948209E-2,-3.6352232E-2,8.789541E-3,-6.426728E-2,-2.9848102E-2,-2.7245825E-2,2.5815958E-2,5.18922E-2,8.263182E-3,1.4444673E-3,4.9469862E-2],"categories":[],"categories_nodes":[],"categories_segments":[],"categories_sizes":[],"default_left":[0,0,0,0,0,0,0,0,0,1,1,0,0,0,0,1,0,0,0,0,1,0,0,0,0,0,0,0,0,0,0,0,0,0,0,0,0],"id":39,"left_children":[1,3,5,7,-1,9,11,-1,-1,13,15,17,19,-1,-1,21,23,-1,25,27,29,31,33,-1,35,-1,-1,-1,-1,-1,-1,-1,-1,-1,-1,-1,-1],"loss_changes":[7.4476357E0,2.15376E0,6.928869E0,2.7840629E0,0E0,5.8308845E0,9.766457E0,0E0,0E0,2.5017476E0,4.2139854E0,4.038559E0,2.3190498E0,0E0,0E0,4.989915E0,4.65556E0,0E0,3.897993E0,2.6614275E0,5.781851E-1,4.0185847E0,2.8784485E0,0E0,4.2880464E0,0E0,0E0,0E0,0E0,0E0,0E0,0E0,0E0,0E0,0E0,0E0,0E0],"parents":[2147483647,0,0,1,1,2,2,3,3,5,5,6,6,9,9,10,10,11,11,12,12,15,15,16,16,18,18,19,19,20,20,21,21,22,22,24,24],"right_children":[2,4,6,8,-1,10,12,-1,-1,14,16,18,20,-1,-1,22,24,-1,26,28,30,32,34,-1,36,-1,-1,-1,-1,-1,-1,-1,-1,-1,-1,-1,-1],"split_conditions":[6.11E-1,7.874618E-2,3.039742E-1,5.1490515E-2,-5.4294348E-2,5.1744886E-2,6.755E-1,9.770337E-3,-3.8293894E-2,2.41584E1,1.7485428E1,2.2351E0,5.238E-1,-4.092797E-2,3.4902908E-3,7.9523E0,1.7941454E1,3.620633E-2,5.7E-1,1.83E2,2.308E1,1.0552764E-1,8.743843E-2,-3.2257263E-2,3.2E2,2.3206783E-2,-2.948209E-2,-3.6352232E-2,8.789541E-3,-6.426728E-2,-2.9848102E-2,-2.7245825E-2,2.5815958E-2,5.18922E-2,8.263182E-3,1.4444673E-3,4.9469862E-2],"split_indices":[29,14,2,11,0,19,29,0,0,44,38,47,56,0,0,45,38,0,52,23,54,26,15,0,24,0,0,0,0,0,0,0,0,0,0,0,0],"split_type":[0,0,0,0,0,0,0,0,0,0,0,0,0,0,0,0,0,0,0,0,0,0,0,0,0,0,0,0,0,0,0,0,0,0,0,0,0],"sum_hessian":[1.376273E2,1.6845768E1,1.2078154E2,1.0500533E1,6.3452353E0,7.723672E1,4.3544823E1,5.018822E0,5.4817104E0,1.1520137E1,6.571658E1,2.0460762E1,2.3084059E1,5.975839E0,5.544298E0,3.438252E1,3.1334063E1,8.082056E0,1.2378707E1,1.1897401E1,1.1186658E1,1.2474187E1,2.190833E1,6.3758955E0,2.4958166E1,5.2089477E0,7.169759E0,6.866777E0,5.030624E0,5.8156176E0,5.3710403E0,5.4014845E0,7.072702E0,1.6544321E1,5.364011E0,1.98649E1,5.093265E0],"tree_param":{"num_deleted":"0","num_feature":"60","num_nodes":"37","size_leaf_vector":"1"}},{"base_weights":[-1.7830104E-3,-4.469946E-2,7.672366E-2,2.4040757E-1,-2.0908739E-1,4.2811856E-1,-1.6278082E-1,2.3181947E-2,-3.5318878E-1,3.047218E-1,5.593875E-2,1.9124167E-2,-4.91671E-1,-9.960531E-2,-7.466205E-1,-2.2305396E-1,5.134974E-1,-4.84565E-2,-1.8056369E-1,-3.9852377E-2,1.7702489E-1,-5.6100387E-2,-3.7825496E-3,-3.3718865E-2,1.7316082E-2,2.6542868E-3,3.8350187E-2,2.260613E-2,-3.8446642E-2,-1.2663679E-2,3.522809E-2],"categories":[],"categories_nodes":[],"categories_segments":[],"categories_sizes":[],"default_left":[0,0,0,0,0,0,0,0,0,0,0,0,0,0,0,0,0,0,0,0,0,0,0,0,0,0,0,0,0,0,0],"id":40,"left_children":[1,-1,3,5,7,9,11,-1,13,15,-1,-1,17,19,21,23,25,-1,27,-1,29,-1,-1,-1,-1,-1,-1,-1,-1,-1,-1],"loss_changes":[9.524503E0,0E0,5.8982034E0,6.1203628E0,4.62831E0,4.3316355E0,4.872478E0,0E0,3.7664275E0,5.391359E0,0E0,0E0,2.3102713E0,4.880143E0,3.6766596E0,3.9009442E0,3.9998302E0,0E0,4.5761895E0,0E0,4.356487E0,0E0,0E0,0E0,0E0,0E0,0E0,0E0,0E0,0E0,0E0],"parents":[2147483647,0,0,2,2,3,3,4,4,5,5,6,6,8,8,9,9,12,12,13,13,14,14,15,15,16,16,18,18,20,20],"right_children":[2,-1,4,6,8,10,12,-1,14,16,-1,-1,18,20,22,24,26,-1,28,-1,30,-1,-1,-1,-1,-1,-1,-1,-1,-1,-1],"split_conditions":[8.8311685E-3,-4.469946E-2,3.041599E-1,3.8272817E-2,1.674E-1,2.9933023E-1,2.2173145E-1,2.3181947E-2,4.950495E-2,1.6E1,5.593875E-2,1.9124167E-2,6.442417E-2,5.3014107E-2,3.6007203E-2,6.158E-1,4.0944E0,-4.84565E-2,8.988764E-2,-3.9852377E-2,7.018417E-2,-5.6100387E-2,-3.7825496E-3,-3.3718865E-2,1.7316082E-2,2.6542868E-3,3.8350187E-2,2.260613E-2,-3.8446642E-2,-1.2663679E-2,3.522809E-2],"split_indices":[26,0,2,21,55,2,3,0,10,30,0,0,13,16,22,36,42,0,12,0,20,0,0,0,0,0,0,0,0,0,0],"split_type":[0,0,0,0,0,0,0,0,0,0,0,0,0,0,0,0,0,0,0,0,0,0,0,0,0,0,0,0,0,0,0],"sum_hessian":[1.3399934E2,9.997147E0,1.240022E2,7.8947716E1,4.5054478E1,5.382621E1,2.5121508E1,7.557133E0,3.7497345E1,4.6889805E1,6.936403E0,9.390361E0,1.5731147E1,2.3563097E1,1.393425E1,1.327154E1,3.3618267E1,5.37184E0,1.0359307E1,6.157496E0,1.74056E1,8.50419E0,5.430059E0,7.3003793E0,5.9711604E0,1.2367014E1,2.1251253E1,5.1032434E0,5.2560635E0,9.872636E0,7.5329647E0],"tree_param":{"num_deleted":"0","num_feature":"60","num_nodes":"31","size_leaf_vector":"1"}},{"base_weights":[-1.4648606E-2,-4.6902725E-1,1.0170039E-1,-8.654703E-1,1.9315349E-1,2.3247246E-2,4.1602824E-2,-5.189324E-2,-1.9043645E-2,-5.304938E-3,2.3027945E-2,5.05921E-1,-5.5136517E-2,5.405767E-2,-1.7651474E-3,-3.1471506E-1,1.599023E-1,-6.760515E-1,-3.493201E-2,3.773443E-1,-2.7416337E-1,-4.760219E-2,-1.5680028E-2,1.6430717E-2,-2.2603799E-2,8.639502E-3,5.7865866E-2,6.4851874E-3,-4.100996E-2],"categories":[],"categories_nodes":[],"categories_segments":[],"categories_sizes":[],"default_left":[0,1,1,0,0,0,0,0,0,0,0,0,0,0,0,0,0,0,0,0,0,0,0,0,0,0,0,0,